[{"children_left": [1, 2, -1, 4, -1, -1, 7, -1, 9, -1, -1], "children_right": [6, 3, -1, 5, -1, -1, 8, -1, 10, -1, -1], "feature": [3, 0, -2, 0, -2, -2, 0, -2, 4, -2, -2], "threshold": [0.5, 3029.135009765625, -2.0, 3059.510009765625, -2.0, -2.0, 2996.85009765625, -2.0, 0.5, -2.0, -2.0], "value": [[[0.4980987463608871, 0.5019012536391169]], [[0.8422541260486448, 0.15774587395135356]], [[1.0, 0.0]], [[0.0, 1.0]], [[0.0, 1.0]], [[0.0, 1.0]], [[0.10288730005113379, 0.897112699948865]], [[1.0, 0.0]], [[0.0, 1.0]], [[0.0, 1.0]], [[0.0, 1.0]]]}, {"children_left": [1, 2, 3, 4, 5, 6, 7, -1, -1, -1, 11, -1, -1, 14, -1, -1, 17, -1, 19, -1, -1, 22, 23, -1, 25, 26, 27, -1, -1, -1, 31, 32, -1, -1, -1, 36, 37, -1, 39, -1, -1, 42, 43, -1, -1, 46, -1, -1, 49, -1, 51, -1, -1], "children_right": [48, 21, 16, 13, 10, 9, 8, -1, -1, -1, 12, -1, -1, 15, -1, -1, 18, -1, 20, -1, -1, 35, 24, -1, 30, 29, 28, -1, -1, -1, 34, 33, -1, -1, -1, 41, 38, -1, 40, -1, -1, 45, 44, -1, -1, 47, -1, -1, 50, -1, 52, -1, -1], "feature": [2, 3, 5, 5, 4, 1, 1, -2, -2, -2, 0, -2, -2, 0, -2, -2, 1, -2, 0, -2, -2, 4, 1, -2, 5, 0, 5, -2, -2, -2, 1, 0, -2, -2, -2, 5, 1, -2, 0, -2, -2, 5, 0, -2, -2, 0, -2, -2, 0, -2, 5, -2, -2], "threshold": [0.5, 0.5, 2.5, 0.5, 0.5, 21.5, 7.5, -2.0, -2.0, -2.0, 3150.0, -2.0, -2.0, 3197.1199951171875, -2.0, -2.0, 4.0, -2.0, 4326.925048828125, -2.0, -2.0, 0.5, 5.5, -2.0, 1.5, 3015.260009765625, 0.5, -2.0, -2.0, -2.0, 21.0, 28.32999897003174, -2.0, -2.0, -2.0, 0.5, 8.0, -2.0, 3340.8299560546875, -2.0, -2.0, 2.5, 2977.7550048828125, -2.0, -2.0, 2395.2550659179688, -2.0, -2.0, 2998.4400634765625, -2.0, 0.5, -2.0, -2.0], "value": [[[0.4933889448992225, 0.5066110551007816]], [[0.8045090040937702, 0.19549099590622793]], [[0.9661539246958838, 0.033846075304116145]], [[0.9621881905129175, 0.03781180948708194]], [[0.9547097685627618, 0.0452902314372372]], [[0.9950237619417195, 0.0049762380582804005]], [[1.0, 0.0]], [[1.0, 0.0]], [[1.0, 0.0]], [[0.0, 1.0]], [[0.546442953020134, 0.45355704697986593]], [[1.0, 0.0]], [[0.0, 1.0]], [[0.9657253782703826, 0.034274621729617705]], [[1.0, 0.0]], [[0.0, 1.0]], [[0.9780985468168678, 0.02190145318313193]], [[0.0, 1.0]], [[0.9911227641069632, 0.008877235893036956]], [[1.0, 0.0]], [[0.0, 1.0]], [[0.3050421023835718, 0.6949578976164248]], [[0.5901856421125459, 0.40981435788745174]], [[0.0, 1.0]], [[0.8459284928555556, 0.15407150714444443]], [[0.7671137737249477, 0.2328862262750501]], [[1.0, 0.0]], [[1.0, 0.0]], [[1.0, 0.0]], [[0.0, 1.0]], [[0.9375346618848667, 0.06246533811513295]], [[1.0, 0.0]], [[1.0, 0.0]], [[1.0, 0.0]], [[0.0, 1.0]], [[0.017435109666318387, 0.9825648903336813]], [[0.03450246446174727, 0.9654975355382528]], [[0.0, 1.0]], [[0.10470661913479139, 0.8952933808652086]], [[1.0, 0.0]], [[0.0, 1.0]], [[0.011664850882041977, 0.988335149117958]], [[0.012957205750412083, 0.9870427942495879]], [[1.0, 0.0]], [[0.0, 1.0]], [[0.007297640312118078, 0.9927023596878819]], [[1.0, 0.0]], [[0.0, 1.0]], [[0.20202208866098756, 0.7979779113390096]], [[1.0, 0.0]], [[0.0, 1.0]], [[0.0, 1.0]], [[0.0, 1.0]]]}, {"children_left": [1, 2, 3, 4, 5, -1, 7, 8, -1, -1, -1, 12, 13, -1, -1, -1, 17, 18, 19, 20, -1, -1, -1, 24, -1, -1, 27, -1, 29, -1, -1, 32, 33, 34, -1, -1, -1, 38, -1, 40, 41, -1, -1, 44, -1, -1, 47, 48, -1, 50, -1, -1, 53, 54, -1, 56, 57, -1, -1, -1, 61, 62, 63, -1, -1, -1, -1], "children_right": [46, 31, 16, 11, 6, -1, 10, 9, -1, -1, -1, 15, 14, -1, -1, -1, 26, 23, 22, 21, -1, -1, -1, 25, -1, -1, 28, -1, 30, -1, -1, 37, 36, 35, -1, -1, -1, 39, -1, 43, 42, -1, -1, 45, -1, -1, 52, 49, -1, 51, -1, -1, 60, 55, -1, 59, 58, -1, -1, -1, 66, 65, 64, -1, -1, -1, -1], "feature": [3, 4, 5, 2, 1, -2, 0, 1, -2, -2, -2, 0, 5, -2, -2, -2, 2, 1, 0, 1, -2, -2, -2, 0, -2, -2, 1, -2, 0, -2, -2, 5, 0, 5, -2, -2, -2, 1, -2, 2, 0, -2, -2, 0, -2, -2, 5, 0, -2, 5, -2, -2, 5, 1, -2, 0, 2, -2, -2, -2, 4, 0, 2, -2, -2, -2, -2], "threshold": [0.5, 0.5, 1.5, 0.5, 5.5, -2.0, 3481.93994140625, 7.5, -2.0, -2.0, -2.0, 3078.47509765625, 0.5, -2.0, -2.0, -2.0, 0.5, 20.5, 3172.9849853515625, 7.5, -2.0, -2.0, -2.0, 4634.125, -2.0, -2.0, 5.5, -2.0, 3175.679931640625, -2.0, -2.0, 2.5, 3021.7099609375, 0.5, -2.0, -2.0, -2.0, 5.5, -2.0, 0.5, 3890.840087890625, -2.0, -2.0, 2924.5700073242188, -2.0, -2.0, 1.5, 3015.260009765625, -2.0, 0.5, -2.0, -2.0, 2.5, 5.5, -2.0, 3161.2100830078125, 0.5, -2.0, -2.0, -2.0, 0.5, 2978.320068359375, 0.5, -2.0, -2.0, -2.0, -2.0], "value": [[[0.4873571356326543, 0.5126428643673493]], [[0.8245720272700187, 0.17542797272998062]], [[0.9402932018203185, 0.059706798179681116]], [[0.9493731034043618, 0.05062689659563847]], [[0.9904530088279296, 0.009546991172070314]], [[0.0, 1.0]], [[0.9952036088620388, 0.004796391137961108]], [[1.0, 0.0]], [[1.0, 0.0]], [[1.0, 0.0]], [[0.0, 1.0]], [[0.8210097665949344, 0.17899023340506423]], [[1.0, 0.0]], [[1.0, 0.0]], [[1.0, 0.0]], [[0.0, 1.0]], [[0.9317211661353967, 0.06827883386460315]], [[0.9907570834891943, 0.00924291651080571]], [[0.9976731406472511, 0.0023268593527488108]], [[1.0, 0.0]], [[1.0, 0.0]], [[1.0, 0.0]], [[0.0, 1.0]], [[0.0, 1.0]], [[0.0, 1.0]], [[0.0, 1.0]], [[0.7648123336059439, 0.23518766639405475]], [[0.0, 1.0]], [[0.9141089692336849, 0.0858910307663151]], [[1.0, 0.0]], [[0.0, 1.0]], [[0.21940779192542306, 0.7805922080745746]], [[0.20600715993752258, 0.7939928400624754]], [[1.0, 0.0]], [[1.0, 0.0]], [[1.0, 0.0]], [[0.0, 1.0]], [[0.26877299285868844, 0.7312270071413115]], [[0.0, 1.0]], [[0.5813406021558666, 0.41865939784413336]], [[0.7861257041584913, 0.21387429584150908]], [[1.0, 0.0]], [[0.0, 1.0]], [[0.19681483242215358, 0.8031851675778467]], [[1.0, 0.0]], [[0.0, 1.0]], [[0.09680231037869068, 0.9031976896213064]], [[0.08567735115501013, 0.9143226488449885]], [[1.0, 0.0]], [[0.0, 1.0]], [[0.0, 1.0]], [[0.0, 1.0]], [[0.1088572132452342, 0.8911427867547642]], [[0.10046300752156823, 0.8995369924784304]], [[0.0, 1.0]], [[0.2663080355446503, 0.7336919644553497]], [[1.0, 0.0]], [[1.0, 0.0]], [[1.0, 0.0]], [[0.0, 1.0]], [[0.11773927589397318, 0.8822607241060252]], [[0.3179249091643106, 0.6820750908356874]], [[1.0, 0.0]], [[1.0, 0.0]], [[1.0, 0.0]], [[0.0, 1.0]], [[0.0, 1.0]]]}, {"children_left": [1, 2, -1, 4, -1, -1, 7, 8, 9, 10, -1, -1, -1, 14, 15, 16, -1, 18, -1, -1, 21, -1, 23, -1, -1, 26, -1, 28, -1, -1, 31, 32, 33, -1, 35, -1, -1, 38, -1, 40, -1, -1, 43, 44, -1, -1, 47, -1, -1], "children_right": [6, 3, -1, 5, -1, -1, 30, 13, 12, 11, -1, -1, -1, 25, 20, 17, -1, 19, -1, -1, 22, -1, 24, -1, -1, 27, -1, 29, -1, -1, 42, 37, 34, -1, 36, -1, -1, 39, -1, 41, -1, -1, 46, 45, -1, -1, 48, -1, -1], "feature": [2, 0, -2, 5, -2, -2, 5, 4, 0, 1, -2, -2, -2, 3, 5, 1, -2, 1, -2, -2, 0, -2, 0, -2, -2, 1, -2, 1, -2, -2, 3, 4, 1, -2, 1, -2, -2, 1, -2, 0, -2, -2, 4, 0, -2, -2, 0, -2, -2], "threshold": [0.5, 3018.044921875, -2.0, 0.5, -2.0, -2.0, 2.5, 0.5, 3018.760009765625, 7.5, -2.0, -2.0, -2.0, 0.5, 0.5, 5.5, -2.0, 21.0, -2.0, -2.0, 3007.2850341796875, -2.0, 3196.2750244140625, -2.0, -2.0, 8.0, -2.0, 16.5, -2.0, -2.0, 0.5, 0.5, 5.0, -2.0, 21.0, -2.0, -2.0, 8.5, -2.0, 2924.5700073242188, -2.0, -2.0, 0.5, 2978.320068359375, -2.0, -2.0, 3062.1749267578125, -2.0, -2.0], "value": [[[0.4855215150286725, 0.5144784849713299]], [[0.8155520306198478, 0.18444796938015035]], [[1.0, 0.0]], [[0.0, 1.0]], [[0.0, 1.0]], [[0.0, 1.0]], [[0.18963549444884478, 0.810364505551153]], [[0.18386093948436744, 0.8161390605156273]], [[0.41691899106192165, 0.583081008938077]], [[1.0, 0.0]], [[1.0, 0.0]], [[1.0, 0.0]], [[0.0, 1.0]], [[0.009400407401445866, 0.9905995925985541]], [[0.052597453803085906, 0.9474025461969139]], [[0.09053594859199948, 0.9094640514080008]], [[0.0, 1.0]], [[0.25446006430057366, 0.7455399356994264]], [[1.0, 0.0]], [[0.0, 1.0]], [[0.03923798692067101, 0.9607620130793286]], [[1.0, 0.0]], [[0.0, 1.0]], [[0.0, 1.0]], [[0.0, 1.0]], [[0.0003787888029785863, 0.9996212111970214]], [[0.0, 1.0]], [[0.0009180672983245647, 0.9990819327016754]], [[1.0, 0.0]], [[0.0, 1.0]], [[0.2086854453389842, 0.7913145546610141]], [[0.6447411651837921, 0.3552588348162058]], [[0.7790700050263364, 0.22092999497366222]], [[0.0, 1.0]], [[0.9185947904520532, 0.08140520954794687]], [[1.0, 0.0]], [[0.0, 1.0]], [[0.09369185120614218, 0.9063081487938579]], [[0.0, 1.0]], [[0.1911291977292935, 0.8088708022707066]], [[1.0, 0.0]], [[0.0, 1.0]], [[0.030796841638262785, 0.9692031583617369]], [[0.09470677460306991, 0.90529322539693]], [[1.0, 0.0]], [[0.0, 1.0]], [[0.0, 1.0]], [[0.0, 1.0]], [[0.0, 1.0]]]}, {"children_left": [1, 2, -1, -1, -1], "children_right": [4, 3, -1, -1, -1], "feature": [0, 3, -2, -2, -2], "threshold": [3000.2650146484375, 0.5, -2.0, -2.0, -2.0], "value": [[[0.5057642120250164, 0.4942357879749875]], [[1.0, 0.0]], [[1.0, 0.0]], [[1.0, 0.0]], [[0.0, 1.0]]]}, {"children_left": [1, 2, 3, 4, -1, -1, 7, 8, -1, 10, -1, -1, 13, -1, 15, -1, -1, 18, 19, -1, -1, -1, 23, 24, 25, -1, -1, -1, 29, -1, 31, -1, -1], "children_right": [22, 17, 6, 5, -1, -1, 12, 9, -1, 11, -1, -1, 14, -1, 16, -1, -1, 21, 20, -1, -1, -1, 28, 27, 26, -1, -1, -1, 30, -1, 32, -1, -1], "feature": [3, 2, 4, 0, -2, -2, 5, 1, -2, 0, -2, -2, 1, -2, 1, -2, -2, 0, 5, -2, -2, -2, 4, 0, 2, -2, -2, -2, 0, -2, 5, -2, -2], "threshold": [0.5, 0.5, 0.5, 3173.6749267578125, -2.0, -2.0, 1.5, 5.5, -2.0, 4850.7550048828125, -2.0, -2.0, 5.5, -2.0, 20.5, -2.0, -2.0, 3027.31005859375, 0.5, -2.0, -2.0, -2.0, 0.5, 2998.6400146484375, 0.5, -2.0, -2.0, -2.0, 2932.784912109375, -2.0, 0.5, -2.0, -2.0], "value": [[[0.48187850232792123, 0.5181214976720828]], [[0.8225127916313238, 0.1774872083686748]], [[0.9485177327386238, 0.051482267261375565]], [[0.9802073843550029, 0.019792615644997104]], [[1.0, 0.0]], [[0.0, 1.0]], [[0.5779653505237698, 0.42203464947622854]], [[0.6068827512390347, 0.39311724876096565]], [[0.0, 1.0]], [[0.7942143727161995, 0.2057856272838005]], [[1.0, 0.0]], [[0.0, 1.0]], [[0.5467053467372073, 0.45329465326279295]], [[0.0, 1.0]], [[0.9060906299070355, 0.09390937009296453]], [[1.0, 0.0]], [[0.0, 1.0]], [[0.5463994179641014, 0.4536005820358987]], [[1.0, 0.0]], [[1.0, 0.0]], [[1.0, 0.0]], [[0.0, 1.0]], [[0.09314063959741387, 0.9068593604025855]], [[0.26057424395401624, 0.7394257560459822]], [[1.0, 0.0]], [[1.0, 0.0]], [[1.0, 0.0]], [[0.0, 1.0]], [[0.005183312934456254, 0.9948166870655436]], [[1.0, 0.0]], [[0.0, 1.0]], [[0.0, 1.0]], [[0.0, 1.0]]]}, {"children_left": [1, 2, -1, 4, 5, -1, -1, -1, 9, -1, 11, -1, -1], "children_right": [8, 3, -1, 7, 6, -1, -1, -1, 10, -1, 12, -1, -1], "feature": [4, 1, -2, 0, 2, -2, -2, -2, 0, -2, 3, -2, -2], "threshold": [0.5, 5.5, -2.0, 3018.044921875, 0.5, -2.0, -2.0, -2.0, 3008.75, -2.0, 0.5, -2.0, -2.0], "value": [[[0.4950303821139248, 0.5049696178860787]], [[0.7505374031062985, 0.24946259689370096]], [[0.0, 1.0]], [[0.9080738075643923, 0.09192619243560718]], [[1.0, 0.0]], [[1.0, 0.0]], [[1.0, 0.0]], [[0.0, 1.0]], [[0.05722348260342158, 0.9427765173965763]], [[1.0, 0.0]], [[0.0, 1.0]], [[0.0, 1.0]], [[0.0, 1.0]]]}, {"children_left": [1, 2, -1, -1, -1], "children_right": [4, 3, -1, -1, -1], "feature": [0, 4, -2, -2, -2], "threshold": [3017.344970703125, 0.5, -2.0, -2.0, -2.0], "value": [[[0.504797154711603, 0.495202845288401]], [[1.0, 0.0]], [[1.0, 0.0]], [[1.0, 0.0]], [[0.0, 1.0]]]}, {"children_left": [1, 2, 3, -1, -1, -1, 7, 8, 9, 10, -1, -1, -1, 14, -1, 16, -1, -1, 19, 20, -1, -1, 23, 24, -1, 26, -1, -1, 29, -1, 31, -1, -1], "children_right": [6, 5, 4, -1, -1, -1, 18, 13, 12, 11, -1, -1, -1, 15, -1, 17, -1, -1, 22, 21, -1, -1, 28, 25, -1, 27, -1, -1, 30, -1, 32, -1, -1], "feature": [4, 0, 5, -2, -2, -2, 3, 2, 0, 5, -2, -2, -2, 0, -2, 0, -2, -2, 1, 0, -2, -2, 5, 1, -2, 1, -2, -2, 0, -2, 5, -2, -2], "threshold": [0.5, 3000.2301025390625, 0.5, -2.0, -2.0, -2.0, 0.5, 0.5, 3190.0050048828125, 0.5, -2.0, -2.0, -2.0, 3008.4549560546875, -2.0, 3122.5, -2.0, -2.0, 5.5, 3026.7249755859375, -2.0, -2.0, 1.5, 20.0, -2.0, 21.5, -2.0, -2.0, 2596.405029296875, -2.0, 2.5, -2.0, -2.0], "value": [[[0.5081931027569363, 0.4918068972430675]], [[0.7702041479695322, 0.2297958520304679]], [[1.0, 0.0]], [[1.0, 0.0]], [[1.0, 0.0]], [[0.0, 1.0]], [[0.06743189622799428, 0.9325681037720044]], [[0.28523942197859264, 0.7147605780214051]], [[0.6779534722523058, 0.3220465277476928]], [[1.0, 0.0]], [[1.0, 0.0]], [[1.0, 0.0]], [[0.0, 1.0]], [[0.07492100024593164, 0.9250789997540679]], [[1.0, 0.0]], [[0.0, 1.0]], [[0.0, 1.0]], [[0.0, 1.0]], [[0.008169446959026975, 0.9918305530409725]], [[0.0, 1.0]], [[0.0, 1.0]], [[0.0, 1.0]], [[0.02211902779571068, 0.9778809722042892]], [[0.03281561692214877, 0.967184383077851]], [[1.0, 0.0]], [[0.0, 1.0]], [[0.0, 1.0]], [[0.0, 1.0]], [[0.011183194593888859, 0.988816805406111]], [[1.0, 0.0]], [[0.0, 1.0]], [[0.0, 1.0]], [[0.0, 1.0]]]}, {"children_left": [1, 2, 3, -1, 5, 6, 7, -1, -1, -1, 11, 12, -1, -1, -1, 16, 17, -1, -1, -1, 21, 22, 23, 24, -1, -1, -1, 28, 29, 30, -1, 32, -1, -1, 35, -1, 37, -1, -1, 40, -1, 42, -1, -1, 45, -1, 47, -1, -1], "children_right": [20, 15, 4, -1, 10, 9, 8, -1, -1, -1, 14, 13, -1, -1, -1, 19, 18, -1, -1, -1, 44, 27, 26, 25, -1, -1, -1, 39, 34, 31, -1, 33, -1, -1, 36, -1, 38, -1, -1, 41, -1, 43, -1, -1, 46, -1, 48, -1, -1], "feature": [3, 4, 1, -2, 5, 1, 5, -2, -2, -2, 1, 0, -2, -2, -2, 0, 2, -2, -2, -2, 4, 2, 0, 5, -2, -2, -2, 5, 5, 0, -2, 0, -2, -2, 1, -2, 1, -2, -2, 1, -2, 1, -2, -2, 1, -2, 1, -2, -2], "threshold": [0.5, 0.5, 5.5, -2.0, 1.5, 20.5, 0.5, -2.0, -2.0, -2.0, 20.5, 15.320000171661377, -2.0, -2.0, -2.0, 3016.18505859375, 0.5, -2.0, -2.0, -2.0, 0.5, 0.5, 3015.260009765625, 0.5, -2.0, -2.0, -2.0, 1.5, 0.5, 3007.195068359375, -2.0, 3260.195068359375, -2.0, -2.0, 6.0, -2.0, 20.5, -2.0, -2.0, 5.5, -2.0, 20.5, -2.0, -2.0, 5.5, -2.0, 20.5, -2.0, -2.0], "value": [[[0.5047971547116034, 0.49520284528840164]], [[0.8303272381051776, 0.16967276189482178]], [[0.9371941840959476, 0.06280581590405226]], [[0.0, 1.0]], [[0.9772601303797392, 0.022739869620260582]], [[0.988701962862593, 0.011298037137406883]], [[1.0, 0.0]], [[1.0, 0.0]], [[1.0, 0.0]], [[0.0, 1.0]], [[0.9665684217104, 0.033431578289599896]], [[1.0, 0.0]], [[1.0, 0.0]], [[1.0, 0.0]], [[0.0, 1.0]], [[0.26064932169662536, 0.7393506783033736]], [[1.0, 0.0]], [[1.0, 0.0]], [[1.0, 0.0]], [[0.0, 1.0]], [[0.1041657526198811, 0.895834247380117]], [[0.2661692451592798, 0.7338307548407182]], [[0.59621977551054, 0.40378022448945816]], [[1.0, 0.0]], [[1.0, 0.0]], [[1.0, 0.0]], [[0.0, 1.0]], [[0.09009624906713024, 0.9099037509328688]], [[0.07763971919676431, 0.9223602808032351]], [[0.10239170460478704, 0.8976082953952127]], [[1.0, 0.0]], [[0.0, 1.0]], [[0.0, 1.0]], [[0.0, 1.0]], [[0.05697879352068844, 0.9430212064793114]], [[0.0, 1.0]], [[0.2060071599375233, 0.7939928400624767]], [[1.0, 0.0]], [[0.0, 1.0]], [[0.10400122814118028, 0.8959987718588192]], [[0.0, 1.0]], [[0.2862135847752193, 0.7137864152247807]], [[1.0, 0.0]], [[0.0, 1.0]], [[0.00768708374435124, 0.9923129162556485]], [[0.0, 1.0]], [[0.021993522480801917, 0.9780064775191979]], [[1.0, 0.0]], [[0.0, 1.0]]]}, {"children_left": [1, 2, -1, -1, -1], "children_right": [4, 3, -1, -1, -1], "feature": [0, 3, -2, -2, -2], "threshold": [3000.2650146484375, 0.5, -2.0, -2.0, -2.0], "value": [[[0.4980987463608874, 0.5019012536391169]], [[1.0, 0.0]], [[1.0, 0.0]], [[1.0, 0.0]], [[0.0, 1.0]]]}, {"children_left": [1, -1, 3, -1, -1], "children_right": [2, -1, 4, -1, -1], "feature": [1, -2, 0, -2, -2], "threshold": [5.5, -2.0, 3020.0150146484375, -2.0, -2.0], "value": [[[0.483012925302253, 0.5169870746977498]], [[0.0, 1.0]], [[0.7228733457382341, 0.277126654261767]], [[1.0, 0.0]], [[0.0, 1.0]]]}, {"children_left": [1, 2, -1, -1, -1], "children_right": [4, 3, -1, -1, -1], "feature": [0, 2, -2, -2, -2], "threshold": [3000.2301025390625, 0.5, -2.0, -2.0, -2.0], "value": [[[0.5026306041134575, 0.49736939588654755]], [[1.0, 0.0]], [[1.0, 0.0]], [[1.0, 0.0]], [[0.0, 1.0]]]}, {"children_left": [1, -1, 3, -1, -1], "children_right": [2, -1, 4, -1, -1], "feature": [1, -2, 0, -2, -2], "threshold": [5.5, -2.0, 3018.044921875, -2.0, -2.0], "value": [[[0.501432512885459, 0.4985674871145453]], [[0.0, 1.0]], [[0.7381394841266767, 0.26186051587332637]], [[1.0, 0.0]], [[0.0, 1.0]]]}, {"children_left": [1, -1, 3, -1, -1], "children_right": [2, -1, 4, -1, -1], "feature": [1, -2, 0, -2, -2], "threshold": [5.5, -2.0, 3068.56005859375, -2.0, -2.0], "value": [[[0.4915221547291598, 0.5084778452708447]], [[0.0, 1.0]], [[0.7422469569002491, 0.2577530430997519]], [[1.0, 0.0]], [[0.0, 1.0]]]}, {"children_left": [1, 2, -1, -1, -1], "children_right": [4, 3, -1, -1, -1], "feature": [0, 3, -2, -2, -2], "threshold": [3000.2650146484375, 0.5, -2.0, -2.0, -2.0], "value": [[[0.4976249896687107, 0.5023750103312937]], [[1.0, 0.0]], [[1.0, 0.0]], [[1.0, 0.0]], [[0.0, 1.0]]]}, {"children_left": [1, 2, 3, 4, -1, -1, -1, 8, -1, 10, -1, -1, 13, 14, 15, -1, -1, -1, 19, 20, -1, -1, 23, -1, -1], "children_right": [12, 7, 6, 5, -1, -1, -1, 9, -1, 11, -1, -1, 18, 17, 16, -1, -1, -1, 22, 21, -1, -1, 24, -1, -1], "feature": [3, 5, 0, 1, -2, -2, -2, 0, -2, 4, -2, -2, 2, 0, 1, -2, -2, -2, 1, 0, -2, -2, 1, -2, -2], "threshold": [0.5, 0.5, 3085.760009765625, 7.5, -2.0, -2.0, -2.0, 3029.8349609375, -2.0, 0.5, -2.0, -2.0, 0.5, 3006.5250244140625, 7.5, -2.0, -2.0, -2.0, 5.5, 3017.6800537109375, -2.0, -2.0, 20.5, -2.0, -2.0], "value": [[[0.5086808192957312, 0.4913191807042742]], [[0.8514093679580448, 0.14859063204195416]], [[0.8689261341438754, 0.13107386585612352]], [[1.0, 0.0]], [[1.0, 0.0]], [[1.0, 0.0]], [[0.0, 1.0]], [[0.8458263960681918, 0.15417360393180785]], [[1.0, 0.0]], [[0.0, 1.0]], [[0.0, 1.0]], [[0.0, 1.0]], [[0.10615097961541078, 0.8938490203845868]], [[0.34212387127417615, 0.6578761287258225]], [[1.0, 0.0]], [[1.0, 0.0]], [[1.0, 0.0]], [[0.0, 1.0]], [[0.029545651864379626, 0.9704543481356194]], [[0.0, 1.0]], [[0.0, 1.0]], [[0.0, 1.0]], [[0.0852981781760104, 0.9147018218239898]], [[1.0, 0.0]], [[0.0, 1.0]]]}, {"children_left": [1, 2, -1, -1, -1], "children_right": [4, 3, -1, -1, -1], "feature": [0, 0, -2, -2, -2], "threshold": [3009.2750244140625, 11.03499984741211, -2.0, -2.0, -2.0], "value": [[[0.5060063768501795, 0.49399362314982376]], [[1.0, 0.0]], [[1.0, 0.0]], [[1.0, 0.0]], [[0.0, 1.0]]]}, {"children_left": [1, 2, 3, -1, 5, -1, 7, -1, -1, 10, -1, 12, 13, -1, -1, -1, 17, 18, 19, 20, 21, -1, -1, -1, 25, -1, -1, 28, -1, 30, -1, -1, 33, -1, 35, -1, -1], "children_right": [16, 9, 4, -1, 6, -1, 8, -1, -1, 11, -1, 15, 14, -1, -1, -1, 32, 27, 24, 23, 22, -1, -1, -1, 26, -1, -1, 29, -1, 31, -1, -1, 34, -1, 36, -1, -1], "feature": [3, 4, 1, -2, 0, -2, 5, -2, -2, 1, -2, 0, 1, -2, -2, -2, 2, 4, 5, 0, 0, -2, -2, -2, 0, -2, -2, 0, -2, 0, -2, -2, 0, -2, 0, -2, -2], "threshold": [0.5, 0.5, 5.5, -2.0, 3481.93994140625, -2.0, 0.5, -2.0, -2.0, 5.5, -2.0, 3079.175048828125, 7.5, -2.0, -2.0, -2.0, 0.5, 0.5, 2.5, 3159.6650390625, 37.57999897003174, -2.0, -2.0, -2.0, 3122.5400390625, -2.0, -2.0, 2977.7550048828125, -2.0, 3062.4949951171875, -2.0, -2.0, 2996.85009765625, -2.0, 3017.6800537109375, -2.0, -2.0], "value": [[[0.493155064461596, 0.5068449355384086]], [[0.834706186455284, 0.1652938135447153]], [[0.9430167329850054, 0.05698326701499389]], [[0.0, 1.0]], [[0.9796510474079845, 0.02034895259201513]], [[1.0, 0.0]], [[0.0, 1.0]], [[0.0, 1.0]], [[0.0, 1.0]], [[0.24937415093855922, 0.7506258490614374]], [[0.0, 1.0]], [[0.5244194229415898, 0.4755805770584088]], [[1.0, 0.0]], [[1.0, 0.0]], [[1.0, 0.0]], [[0.0, 1.0]], [[0.10682949317332385, 0.8931705068266741]], [[0.35281433259805206, 0.6471856674019438]], [[0.6471600508741112, 0.3528399491258868]], [[0.5938409019881229, 0.4061590980118745]], [[1.0, 0.0]], [[1.0, 0.0]], [[1.0, 0.0]], [[0.0, 1.0]], [[0.8382572566439458, 0.16174274335605446]], [[1.0, 0.0]], [[0.0, 1.0]], [[0.03997371931608069, 0.9600262806839187]], [[1.0, 0.0]], [[0.0, 1.0]], [[0.0, 1.0]], [[0.0, 1.0]], [[0.03179657752557394, 0.968203422474425]], [[1.0, 0.0]], [[0.0, 1.0]], [[0.0, 1.0]], [[0.0, 1.0]]]}, {"children_left": [1, 2, -1, -1, -1], "children_right": [4, 3, -1, -1, -1], "feature": [0, 0, -2, -2, -2], "threshold": [3000.2650146484375, 11.03499984741211, -2.0, -2.0, -2.0], "value": [[[0.4962074361747117, 0.503792563825292]], [[1.0, 0.0]], [[1.0, 0.0]], [[1.0, 0.0]], [[0.0, 1.0]]]}, {"children_left": [1, 2, -1, -1, -1], "children_right": [4, 3, -1, -1, -1], "feature": [0, 1, -2, -2, -2], "threshold": [3009.3099365234375, 7.5, -2.0, -2.0, -2.0], "value": [[[0.5062487021926267, 0.493751297807376]], [[1.0, 0.0]], [[1.0, 0.0]], [[1.0, 0.0]], [[0.0, 1.0]]]}, {"children_left": [1, 2, 3, -1, -1, 6, -1, -1, 9, 10, 11, 12, -1, -1, -1, 16, -1, 18, -1, -1, 21, -1, 23, -1, -1], "children_right": [8, 5, 4, -1, -1, 7, -1, -1, 20, 15, 14, 13, -1, -1, -1, 17, -1, 19, -1, -1, 22, -1, 24, -1, -1], "feature": [3, 0, 4, -2, -2, 1, -2, -2, 2, 4, 0, 5, -2, -2, -2, 1, -2, 0, -2, -2, 1, -2, 0, -2, -2], "threshold": [0.5, 3030.304931640625, 0.5, -2.0, -2.0, 0.5, -2.0, -2.0, 0.5, 0.5, 3015.260009765625, 0.5, -2.0, -2.0, -2.0, 5.5, -2.0, 3105.6099853515625, -2.0, -2.0, 5.5, -2.0, 3017.1700439453125, -2.0, -2.0], "value": [[[0.4983358576787508, 0.5016641423212539]], [[0.8493412861278292, 0.15065871387216914]], [[1.0, 0.0]], [[1.0, 0.0]], [[1.0, 0.0]], [[0.0, 1.0]], [[0.0, 1.0]], [[0.0, 1.0]], [[0.09740911057427264, 0.9025908894257256]], [[0.2968064037216306, 0.7031935962783666]], [[0.5422029535293317, 0.45779704647066605]], [[1.0, 0.0]], [[1.0, 0.0]], [[1.0, 0.0]], [[0.0, 1.0]], [[0.021012606294899747, 0.9789873937051004]], [[0.0, 1.0]], [[0.06692035696245158, 0.9330796430375484]], [[1.0, 0.0]], [[0.0, 1.0]], [[0.028895421401826105, 0.9711045785981729]], [[0.0, 1.0]], [[0.07810880074283641, 0.9218911992571643]], [[1.0, 0.0]], [[0.0, 1.0]]]}, {"children_left": [1, 2, -1, -1, -1], "children_right": [4, 3, -1, -1, -1], "feature": [0, 2, -2, -2, -2], "threshold": [2999.800048828125, 0.5, -2.0, -2.0, -2.0], "value": [[[0.5016718154602371, 0.4983281845397626]], [[1.0, 0.0]], [[1.0, 0.0]], [[1.0, 0.0]], [[0.0, 1.0]]]}, {"children_left": [1, 2, -1, -1, -1], "children_right": [4, 3, -1, -1, -1], "feature": [0, 1, -2, -2, -2], "threshold": [3000.2650146484375, 7.5, -2.0, -2.0, -2.0], "value": [[[0.4964433088324786, 0.5035566911675243]], [[1.0, 0.0]], [[1.0, 0.0]], [[1.0, 0.0]], [[0.0, 1.0]]]}, {"children_left": [1, 2, -1, 4, -1, -1, 7, 8, 9, -1, -1, -1, 13, -1, 15, -1, -1], "children_right": [6, 3, -1, 5, -1, -1, 12, 11, 10, -1, -1, -1, 14, -1, 16, -1, -1], "feature": [3, 0, -2, 2, -2, -2, 4, 0, 1, -2, -2, -2, 1, -2, 1, -2, -2], "threshold": [0.5, 3092.125, -2.0, 0.5, -2.0, -2.0, 0.5, 2997.4801025390625, 7.5, -2.0, -2.0, -2.0, 5.5, -2.0, 20.0, -2.0, -2.0], "value": [[[0.494091500907669, 0.5059084990923344]], [[0.839186376600788, 0.16081362339921085]], [[1.0, 0.0]], [[0.0, 1.0]], [[0.0, 1.0]], [[0.0, 1.0]], [[0.10669698967932333, 0.8933030103206736]], [[0.26466776401394115, 0.7353322359860567]], [[1.0, 0.0]], [[1.0, 0.0]], [[1.0, 0.0]], [[0.0, 1.0]], [[0.006367224603694107, 0.9936327753963058]], [[0.0, 1.0]], [[0.01983878511241341, 0.9801612148875868]], [[1.0, 0.0]], [[0.0, 1.0]]]}, {"children_left": [1, 2, -1, -1, -1], "children_right": [4, 3, -1, -1, -1], "feature": [0, 4, -2, -2, -2], "threshold": [3008.844970703125, 0.5, -2.0, -2.0, -2.0], "value": [[[0.5031109476401237, 0.4968890523598785]], [[1.0, 0.0]], [[1.0, 0.0]], [[1.0, 0.0]], [[0.0, 1.0]]]}, {"children_left": [1, 2, -1, 4, -1, -1, 7, -1, 9, -1, -1], "children_right": [6, 3, -1, 5, -1, -1, 8, -1, 10, -1, -1], "feature": [2, 0, -2, 1, -2, -2, 0, -2, 5, -2, -2], "threshold": [0.5, 3009.3099365234375, -2.0, 0.5, -2.0, -2.0, 3010.06005859375, -2.0, 0.5, -2.0, -2.0], "value": [[[0.5096582010924453, 0.49034179890755986]], [[0.8243054632213627, 0.1756945367786356]], [[1.0, 0.0]], [[0.0, 1.0]], [[0.0, 1.0]], [[0.0, 1.0]], [[0.21025081608587534, 0.7897491839141214]], [[1.0, 0.0]], [[0.0, 1.0]], [[0.0, 1.0]], [[0.0, 1.0]]]}, {"children_left": [1, 2, 3, -1, 5, -1, -1, 8, -1, 10, 11, 12, -1, -1, -1, 16, -1, -1, 19, -1, 21, -1, -1], "children_right": [18, 7, 4, -1, 6, -1, -1, 9, -1, 15, 14, 13, -1, -1, -1, 17, -1, -1, 20, -1, 22, -1, -1], "feature": [3, 4, 0, -2, 5, -2, -2, 1, -2, 2, 1, 5, -2, -2, -2, 0, -2, -2, 0, -2, 4, -2, -2], "threshold": [0.5, 0.5, 3085.760009765625, -2.0, 0.5, -2.0, -2.0, 5.5, -2.0, 0.5, 20.5, 0.5, -2.0, -2.0, -2.0, 3125.0899658203125, -2.0, -2.0, 2997.4801025390625, -2.0, 0.5, -2.0, -2.0], "value": [[[0.5103929476840827, 0.4896070523159221]], [[0.8424933109766598, 0.1575066890233401]], [[0.9445383668444813, 0.055461633155518074]], [[1.0, 0.0]], [[0.0, 1.0]], [[0.0, 1.0]], [[0.0, 1.0]], [[0.2551543261249992, 0.7448456738749994]], [[0.0, 1.0]], [[0.5899541985791505, 0.41004580142084956]], [[0.8946341037506382, 0.10536589624936081]], [[1.0, 0.0]], [[1.0, 0.0]], [[1.0, 0.0]], [[0.0, 1.0]], [[0.20849827832564238, 0.7915017216743577]], [[1.0, 0.0]], [[0.0, 1.0]], [[0.11350213544844424, 0.8864978645515533]], [[1.0, 0.0]], [[0.0, 1.0]], [[0.0, 1.0]], [[0.0, 1.0]]]}, {"children_left": [1, 2, -1, -1, -1], "children_right": [4, 3, -1, -1, -1], "feature": [0, 3, -2, -2, -2], "threshold": [3000.2650146484375, 0.5, -2.0, -2.0, -2.0], "value": [[[0.4945606353178006, 0.505439364682204]], [[1.0, 0.0]], [[1.0, 0.0]], [[1.0, 0.0]], [[0.0, 1.0]]]}, {"children_left": [1, 2, -1, 4, -1, -1, 7, 8, 9, 10, -1, -1, -1, 14, 15, -1, 17, 18, -1, -1, -1, 22, -1, 24, -1, -1, 27, 28, 29, 30, -1, -1, -1, 34, 35, -1, -1, 38, -1, -1, 41, -1, 43, -1, -1], "children_right": [6, 3, -1, 5, -1, -1, 26, 13, 12, 11, -1, -1, -1, 21, 16, -1, 20, 19, -1, -1, -1, 23, -1, 25, -1, -1, 40, 33, 32, 31, -1, -1, -1, 37, 36, -1, -1, 39, -1, -1, 42, -1, 44, -1, -1], "feature": [3, 0, -2, 1, -2, -2, 5, 2, 0, 1, -2, -2, -2, 4, 1, -2, 1, 0, -2, -2, -2, 5, -2, 0, -2, -2, 2, 4, 0, 5, -2, -2, -2, 5, 0, -2, -2, 0, -2, -2, 1, -2, 0, -2, -2], "threshold": [0.5, 3092.090087890625, -2.0, 0.5, -2.0, -2.0, 1.5, 0.5, 3011.489990234375, 7.5, -2.0, -2.0, -2.0, 0.5, 5.5, -2.0, 20.5, 344.93499755859375, -2.0, -2.0, -2.0, 0.5, -2.0, 1683.1850280761719, -2.0, -2.0, 0.5, 0.5, 3156.5450439453125, 2.5, -2.0, -2.0, -2.0, 2.5, 2004.5950012207031, -2.0, -2.0, 2588.264923095703, -2.0, -2.0, 5.5, -2.0, 3005.580078125, -2.0, -2.0], "value": [[[0.4976249896687106, 0.5023750103312937]], [[0.852141453037486, 0.14785854696251363]], [[1.0, 0.0]], [[0.0, 1.0]], [[0.0, 1.0]], [[0.0, 1.0]], [[0.099148333188724, 0.9008516668112748]], [[0.08868483487216688, 0.9113151651278321]], [[0.3348425196850386, 0.6651574803149592]], [[1.0, 0.0]], [[1.0, 0.0]], [[1.0, 0.0]], [[0.0, 1.0]], [[0.019727886671194152, 0.980272113328806]], [[0.06111178646475515, 0.938888213535244]], [[0.0, 1.0]], [[0.18607014863991533, 0.8139298513600846]], [[1.0, 0.0]], [[1.0, 0.0]], [[1.0, 0.0]], [[0.0, 1.0]], [[0.0010799042171911715, 0.9989200957828088]], [[0.0, 1.0]], [[0.00203786290203491, 0.9979621370979654]], [[1.0, 0.0]], [[0.0, 1.0]], [[0.11136656520795422, 0.8886334347920447]], [[0.33465639994610935, 0.6653436000538887]], [[0.6204973490467016, 0.37950265095329705]], [[1.0, 0.0]], [[1.0, 0.0]], [[1.0, 0.0]], [[0.0, 1.0]], [[0.005538313356164383, 0.9944616866438356]], [[0.004356702376191778, 0.9956432976238081]], [[1.0, 0.0]], [[0.0, 1.0]], [[0.0075993979220969924, 0.992400602077903]], [[1.0, 0.0]], [[0.0, 1.0]], [[0.03136079469923257, 0.9686392053007671]], [[0.0, 1.0]], [[0.08249122402614523, 0.9175087759738547]], [[1.0, 0.0]], [[0.0, 1.0]]]}, {"children_left": [1, 2, 3, -1, 5, -1, -1, 8, -1, 10, 11, -1, -1, -1, 15, -1, 17, 18, 19, -1, -1, -1, 23, -1, 25, -1, -1], "children_right": [14, 7, 4, -1, 6, -1, -1, 9, -1, 13, 12, -1, -1, -1, 16, -1, 22, 21, 20, -1, -1, -1, 24, -1, 26, -1, -1], "feature": [4, 3, 0, -2, 2, -2, -2, 1, -2, 1, 2, -2, -2, -2, 1, -2, 3, 0, 2, -2, -2, -2, 1, -2, 1, -2, -2], "threshold": [0.5, 0.5, 3133.1400146484375, -2.0, 0.5, -2.0, -2.0, 5.5, -2.0, 20.5, 0.5, -2.0, -2.0, -2.0, 5.5, -2.0, 0.5, 3095.554931640625, 0.5, -2.0, -2.0, -2.0, 20.5, -2.0, 21.5, -2.0, -2.0], "value": [[[0.4931550644615955, 0.5068449355384076]], [[0.7567663464421561, 0.24323365355784343]], [[0.9482263519314669, 0.051773648068532505]], [[1.0, 0.0]], [[0.0, 1.0]], [[0.0, 1.0]], [[0.0, 1.0]], [[0.2760023801200285, 0.723997619879969]], [[0.0, 1.0]], [[0.554323193323663, 0.44567680667633797]], [[1.0, 0.0]], [[1.0, 0.0]], [[1.0, 0.0]], [[0.0, 1.0]], [[0.054474215148295695, 0.9455257848517035]], [[0.0, 1.0]], [[0.14153666936790954, 0.8584633306320912]], [[0.4704176788652925, 0.529582321134707]], [[1.0, 0.0]], [[1.0, 0.0]], [[1.0, 0.0]], [[0.0, 1.0]], [[0.012708323622270153, 0.9872916763777296]], [[1.0, 0.0]], [[0.0, 1.0]], [[0.0, 1.0]], [[0.0, 1.0]]]}, {"children_left": [1, 2, -1, 4, -1, 6, -1, -1, 9, 10, 11, -1, -1, -1, 15, 16, -1, 18, -1, 20, -1, -1, 23, -1, 25, -1, 27, -1, -1], "children_right": [8, 3, -1, 5, -1, 7, -1, -1, 14, 13, 12, -1, -1, -1, 22, 17, -1, 19, -1, 21, -1, -1, 24, -1, 26, -1, 28, -1, -1], "feature": [3, 1, -2, 0, -2, 2, -2, -2, 4, 0, 5, -2, -2, -2, 2, 1, -2, 1, -2, 5, -2, -2, 5, -2, 1, -2, 0, -2, -2], "threshold": [0.5, 5.5, -2.0, 3146.93994140625, -2.0, 0.5, -2.0, -2.0, 0.5, 2997.4801025390625, 0.5, -2.0, -2.0, -2.0, 0.5, 5.5, -2.0, 20.5, -2.0, 0.5, -2.0, -2.0, 1.5, -2.0, 8.0, -2.0, 1713.0850524902344, -2.0, -2.0], "value": [[[0.5084368799646577, 0.49156312003534697]], [[0.8501476636780347, 0.14985233632196382]], [[0.0, 1.0]], [[0.9400486583469917, 0.059951341653007646]], [[1.0, 0.0]], [[0.0, 1.0]], [[0.0, 1.0]], [[0.0, 1.0]], [[0.10595372527155822, 0.894046274728439]], [[0.26142076502732364, 0.738579234972675]], [[1.0, 0.0]], [[1.0, 0.0]], [[1.0, 0.0]], [[0.0, 1.0]], [[0.006937408641984883, 0.993062591358015]], [[0.034914473595437374, 0.9650855264045622]], [[0.0, 1.0]], [[0.09264232008592908, 0.9073576799140708]], [[1.0, 0.0]], [[0.0, 1.0]], [[0.0, 1.0]], [[0.0, 1.0]], [[0.00032984123004752827, 0.9996701587699525]], [[0.0, 1.0]], [[0.0006606502458023188, 0.9993393497541977]], [[0.0, 1.0]], [[0.002107985906026599, 0.9978920140939733]], [[1.0, 0.0]], [[0.0, 1.0]]]}, {"children_left": [1, 2, 3, 4, -1, 6, 7, -1, -1, -1, 11, 12, -1, -1, 15, 16, -1, -1, 19, -1, -1, 22, 23, 24, -1, -1, -1, 28, 29, -1, -1, 32, -1, 34, -1, -1, 37, 38, 39, -1, -1, -1, 43, -1, 45, -1, -1], "children_right": [36, 21, 10, 5, -1, 9, 8, -1, -1, -1, 14, 13, -1, -1, 18, 17, -1, -1, 20, -1, -1, 27, 26, 25, -1, -1, -1, 31, 30, -1, -1, 33, -1, 35, -1, -1, 42, 41, 40, -1, -1, -1, 44, -1, 46, -1, -1], "feature": [3, 2, 5, 1, -2, 0, 5, -2, -2, -2, 4, 0, -2, -2, 5, 0, -2, -2, 0, -2, -2, 4, 0, 1, -2, -2, -2, 5, 0, -2, -2, 0, -2, 5, -2, -2, 2, 0, 4, -2, -2, -2, 0, -2, 0, -2, -2], "threshold": [0.5, 0.5, 1.5, 5.5, -2.0, 3481.93994140625, 0.5, -2.0, -2.0, -2.0, 0.5, 3173.2049560546875, -2.0, -2.0, 2.5, 3160.675048828125, -2.0, -2.0, 3821.9801025390625, -2.0, -2.0, 0.5, 3079.570068359375, 7.5, -2.0, -2.0, -2.0, 0.5, 3058.6849365234375, -2.0, -2.0, 3007.2850341796875, -2.0, 1.5, -2.0, -2.0, 0.5, 3006.5250244140625, 0.5, -2.0, -2.0, -2.0, 2978.320068359375, -2.0, 3017.6800537109375, -2.0, -2.0], "value": [[[0.4985731245148675, 0.5014268754851355]], [[0.8349568709431928, 0.16504312905680593]], [[0.9658593535345765, 0.034140646465422794]], [[0.9593360864443068, 0.04066391355569287]], [[0.0, 1.0]], [[0.9846236556343744, 0.015376344365625603]], [[1.0, 0.0]], [[1.0, 0.0]], [[1.0, 0.0]], [[0.0, 1.0]], [[0.9727745358517629, 0.027225464148236952]], [[0.9927589495226565, 0.007241050477343478]], [[1.0, 0.0]], [[0.0, 1.0]], [[0.6598550432856856, 0.3401449567143148]], [[0.6730274235064156, 0.3269725764935845]], [[1.0, 0.0]], [[0.0, 1.0]], [[0.6418179409036704, 0.35818205909632983]], [[1.0, 0.0]], [[0.0, 1.0]], [[0.5552693428598315, 0.4447306571401675]], [[0.7861257041584913, 0.21387429584150652]], [[1.0, 0.0]], [[1.0, 0.0]], [[1.0, 0.0]], [[0.0, 1.0]], [[0.059861060297026855, 0.9401389397029728]], [[0.12113921581377204, 0.8788607841862282]], [[1.0, 0.0]], [[0.0, 1.0]], [[0.05031637637014133, 0.949683623629858]], [[1.0, 0.0]], [[0.0, 1.0]], [[0.0, 1.0]], [[0.0, 1.0]], [[0.11065925074017612, 0.889340749259823]], [[0.33967483634778234, 0.6603251636522175]], [[1.0, 0.0]], [[1.0, 0.0]], [[1.0, 0.0]], [[0.0, 1.0]], [[0.029893922445290138, 0.9701060775547089]], [[1.0, 0.0]], [[0.0, 1.0]], [[0.0, 1.0]], [[0.0, 1.0]]]}, {"children_left": [1, 2, -1, -1, -1], "children_right": [4, 3, -1, -1, -1], "feature": [0, 4, -2, -2, -2], "threshold": [3017.31005859375, 0.5, -2.0, -2.0, -2.0], "value": [[[0.499048125354281, 0.5009518746457217]], [[1.0, 0.0]], [[1.0, 0.0]], [[1.0, 0.0]], [[0.0, 1.0]]]}, {"children_left": [1, 2, 3, -1, -1, -1, 7, -1, 9, -1, -1], "children_right": [6, 5, 4, -1, -1, -1, 8, -1, 10, -1, -1], "feature": [4, 0, 1, -2, -2, -2, 0, -2, 1, -2, -2], "threshold": [0.5, 3000.2301025390625, 7.5, -2.0, -2.0, -2.0, 3004.39501953125, -2.0, 0.5, -2.0, -2.0], "value": [[[0.5047971547116024, 0.4952028452883995]], [[0.7665260894131078, 0.23347391058689118]], [[1.0, 0.0]], [[1.0, 0.0]], [[1.0, 0.0]], [[0.0, 1.0]], [[0.06561766530876512, 0.9343823346912336]], [[1.0, 0.0]], [[0.0, 1.0]], [[0.0, 1.0]], [[0.0, 1.0]]]}, {"children_left": [1, 2, -1, 4, -1, 6, -1, -1, 9, -1, 11, -1, -1], "children_right": [8, 3, -1, 5, -1, 7, -1, -1, 10, -1, 12, -1, -1], "feature": [3, 1, -2, 1, -2, 4, -2, -2, 0, -2, 2, -2, -2], "threshold": [0.5, 5.5, -2.0, 20.5, -2.0, 0.5, -2.0, -2.0, 3005.89501953125, -2.0, 0.5, -2.0, -2.0], "value": [[[0.4983358576787504, 0.5016641423212524]], [[0.8456048529930743, 0.15439514700692414]], [[0.0, 1.0]], [[0.941580928308268, 0.05841907169173158]], [[1.0, 0.0]], [[0.0, 1.0]], [[0.0, 1.0]], [[0.0, 1.0]], [[0.09734068342763444, 0.9026593165723638]], [[1.0, 0.0]], [[0.0, 1.0]], [[0.0, 1.0]], [[0.0, 1.0]]]}, {"children_left": [1, 2, -1, -1, -1], "children_right": [4, 3, -1, -1, -1], "feature": [0, 5, -2, -2, -2], "threshold": [3000.2301025390625, 0.5, -2.0, -2.0, -2.0], "value": [[[0.4924543357622567, 0.5075456642377472]], [[1.0, 0.0]], [[1.0, 0.0]], [[1.0, 0.0]], [[0.0, 1.0]]]}, {"children_left": [1, -1, 3, -1, -1], "children_right": [2, -1, 4, -1, -1], "feature": [1, -2, 1, -2, -2], "threshold": [5.5, -2.0, 20.5, -2.0, -2.0], "value": [[[0.4807477079914459, 0.5192522920085568]], [[0.0, 1.0]], [[0.7377831735226635, 0.2622168264773378]], [[1.0, 0.0]], [[0.0, 1.0]]]}, {"children_left": [1, 2, 3, -1, -1, -1, 7, 8, -1, 10, -1, -1, 13, 14, 15, 16, -1, -1, -1, 20, -1, -1, 23, 24, -1, -1, 27, 28, -1, 30, -1, -1, -1], "children_right": [6, 5, 4, -1, -1, -1, 12, 9, -1, 11, -1, -1, 22, 19, 18, 17, -1, -1, -1, 21, -1, -1, 26, 25, -1, -1, 32, 29, -1, 31, -1, -1, -1], "feature": [4, 0, 5, -2, -2, -2, 5, 0, -2, 0, -2, -2, 2, 5, 0, 0, -2, -2, -2, 0, -2, -2, 3, 0, -2, -2, 5, 1, -2, 0, -2, -2, -2], "threshold": [0.5, 3000.2301025390625, 0.5, -2.0, -2.0, -2.0, 1.5, 3005.054931640625, -2.0, 3062.3599853515625, -2.0, -2.0, 0.5, 2.5, 3185.6500244140625, 51.61000061035156, -2.0, -2.0, -2.0, 3141.7750244140625, -2.0, -2.0, 0.5, 2765.010009765625, -2.0, -2.0, 2.5, 11.5, -2.0, 2596.405029296875, -2.0, -2.0, -2.0], "value": [[[0.4983358576787506, 0.5016641423212537]], [[0.7574491146936164, 0.2425508853063825]], [[1.0, 0.0]], [[1.0, 0.0]], [[1.0, 0.0]], [[0.0, 1.0]], [[0.05853747685500603, 0.9414625231449919]], [[0.061644398729147204, 0.9383556012708517]], [[1.0, 0.0]], [[0.0, 1.0]], [[0.0, 1.0]], [[0.0, 1.0]], [[0.05508308743173103, 0.9449169125682677]], [[0.23147779609939095, 0.7685222039006071]], [[0.17821478775615418, 0.8217852122438456]], [[1.0, 0.0]], [[1.0, 0.0]], [[1.0, 0.0]], [[0.0, 1.0]], [[0.33014949043495495, 0.6698505095650453]], [[1.0, 0.0]], [[0.0, 1.0]], [[0.006957611401071446, 0.9930423885989285]], [[0.04224441899751703, 0.957755581002483]], [[1.0, 0.0]], [[0.0, 1.0]], [[0.0006311552885934692, 0.9993688447114065]], [[0.0013204281504224943, 0.9986795718495775]], [[0.0, 1.0]], [[0.004255814909743828, 0.9957441850902561]], [[1.0, 0.0]], [[0.0, 1.0]], [[0.0, 1.0]]]}, {"children_left": [1, 2, 3, -1, -1, -1, 7, 8, 9, -1, -1, -1, 13, -1, 15, -1, 17, -1, -1], "children_right": [6, 5, 4, -1, -1, -1, 12, 11, 10, -1, -1, -1, 14, -1, 16, -1, 18, -1, -1], "feature": [4, 0, 1, -2, -2, -2, 2, 0, 3, -2, -2, -2, 1, -2, 1, -2, 3, -2, -2], "threshold": [0.5, 3000.2650146484375, 7.5, -2.0, -2.0, -2.0, 0.5, 3033.77001953125, 0.5, -2.0, -2.0, -2.0, 5.5, -2.0, 20.5, -2.0, 0.5, -2.0, -2.0], "value": [[[0.5259136217544169, 0.4740863782455868]], [[0.7916206751733393, 0.2083793248266599]], [[1.0, 0.0]], [[1.0, 0.0]], [[1.0, 0.0]], [[0.0, 1.0]], [[0.06898355880270217, 0.9310164411972955]], [[0.2491335083218986, 0.7508664916780984]], [[1.0, 0.0]], [[1.0, 0.0]], [[1.0, 0.0]], [[0.0, 1.0]], [[0.01667337897704393, 0.9833266210229558]], [[0.0, 1.0]], [[0.04496741491672701, 0.9550325850832728]], [[1.0, 0.0]], [[0.0, 1.0]], [[0.0, 1.0]], [[0.0, 1.0]]]}, {"children_left": [1, 2, -1, 4, 5, 6, -1, 8, -1, -1, 11, 12, -1, -1, 15, -1, -1, 18, -1, 20, -1, -1, 23, 24, 25, -1, -1, -1, 29, -1, -1], "children_right": [22, 3, -1, 17, 10, 7, -1, 9, -1, -1, 14, 13, -1, -1, 16, -1, -1, 19, -1, 21, -1, -1, 28, 27, 26, -1, -1, -1, 30, -1, -1], "feature": [3, 1, -2, 5, 4, 0, -2, 0, -2, -2, 2, 0, -2, -2, 1, -2, -2, 0, -2, 4, -2, -2, 4, 0, 0, -2, -2, -2, 0, -2, -2], "threshold": [0.5, 5.5, -2.0, 0.5, 0.5, 3802.929931640625, -2.0, 5041.369873046875, -2.0, -2.0, 0.5, 4844.47998046875, -2.0, -2.0, 20.5, -2.0, -2.0, 3091.6600341796875, -2.0, 0.5, -2.0, -2.0, 0.5, 2997.4801025390625, 21.335000038146973, -2.0, -2.0, -2.0, 2967.0050048828125, -2.0, -2.0], "value": [[[0.5040735393665701, 0.49592646063343343]], [[0.8395993544099517, 0.16040064559004752]], [[0.0, 1.0]], [[0.9377917564780158, 0.06220824352198326]], [[0.9481333214628888, 0.05186667853711032]], [[0.9886902211749584, 0.011309778825041366]], [[1.0, 0.0]], [[0.0, 1.0]], [[0.0, 1.0]], [[0.0, 1.0]], [[0.4988691557598901, 0.5011308442401099]], [[0.7645296167247392, 0.23547038327526149]], [[1.0, 0.0]], [[0.0, 1.0]], [[0.19681483242215358, 0.8031851675778466]], [[1.0, 0.0]], [[0.0, 1.0]], [[0.9345281922108126, 0.06547180778918701]], [[1.0, 0.0]], [[0.0, 1.0]], [[0.0, 1.0]], [[0.0, 1.0]], [[0.10191070554598793, 0.8980892944540101]], [[0.26685367534035737, 0.7331463246596411]], [[1.0, 0.0]], [[1.0, 0.0]], [[1.0, 0.0]], [[0.0, 1.0]], [[0.003396652238012223, 0.9966033477619877]], [[1.0, 0.0]], [[0.0, 1.0]]]}, {"children_left": [1, 2, 3, -1, -1, 6, -1, -1, 9, 10, -1, 12, -1, -1, 15, -1, 17, -1, -1], "children_right": [8, 5, 4, -1, -1, 7, -1, -1, 14, 11, -1, 13, -1, -1, 16, -1, 18, -1, -1], "feature": [4, 0, 5, -2, -2, 5, -2, -2, 3, 1, -2, 0, -2, -2, 1, -2, 0, -2, -2], "threshold": [0.5, 3000.2650146484375, 0.5, -2.0, -2.0, 0.5, -2.0, -2.0, 0.5, 5.5, -2.0, 3083.530029296875, -2.0, -2.0, 5.5, -2.0, 2985.2200927734375, -2.0, -2.0], "value": [[[0.4943259916393544, 0.5056740083606504]], [[0.7545724856436015, 0.24542751435639806]], [[1.0, 0.0]], [[1.0, 0.0]], [[1.0, 0.0]], [[0.0, 1.0]], [[0.0, 1.0]], [[0.0, 1.0]], [[0.06067534294759042, 0.9393246570524078]], [[0.25733040840296795, 0.7426695915970298]], [[0.0, 1.0]], [[0.4972555936384959, 0.5027444063615041]], [[1.0, 0.0]], [[0.0, 1.0]], [[0.0035363472144655976, 0.9964636527855343]], [[0.0, 1.0]], [[0.010028144320383882, 0.9899718556796162]], [[1.0, 0.0]], [[0.0, 1.0]]]}, {"children_left": [1, 2, -1, -1, -1], "children_right": [4, 3, -1, -1, -1], "feature": [0, 0, -2, -2, -2], "threshold": [3000.2650146484375, 13.21500015258789, -2.0, -2.0, -2.0], "value": [[[0.4926877600415394, 0.5073122399584661]], [[1.0, 0.0]], [[1.0, 0.0]], [[1.0, 0.0]], [[0.0, 1.0]]]}, {"children_left": [1, 2, 3, -1, 5, -1, 7, -1, -1, 10, 11, 12, 13, -1, -1, -1, 17, -1, 19, -1, -1, 22, -1, 24, -1, -1, 27, 28, 29, 30, -1, -1, -1, 34, -1, 36, -1, -1, 39, -1, 41, -1, -1], "children_right": [26, 9, 4, -1, 6, -1, 8, -1, -1, 21, 16, 15, 14, -1, -1, -1, 18, -1, 20, -1, -1, 23, -1, 25, -1, -1, 38, 33, 32, 31, -1, -1, -1, 35, -1, 37, -1, -1, 40, -1, 42, -1, -1], "feature": [2, 4, 1, -2, 0, -2, 0, -2, -2, 3, 5, 0, 1, -2, -2, -2, 1, -2, 0, -2, -2, 1, -2, 1, -2, -2, 4, 3, 0, 1, -2, -2, -2, 0, -2, 0, -2, -2, 0, -2, 3, -2, -2], "threshold": [0.5, 0.5, 5.5, -2.0, 3198.659912109375, -2.0, 3505.3948974609375, -2.0, -2.0, 0.5, 2.5, 3156.2750244140625, 7.5, -2.0, -2.0, -2.0, 4.0, -2.0, 5477.7099609375, -2.0, -2.0, 5.5, -2.0, 20.5, -2.0, -2.0, 0.5, 0.5, 3083.93505859375, 7.5, -2.0, -2.0, -2.0, 2996.85009765625, -2.0, 3020.9200439453125, -2.0, -2.0, 2998.074951171875, -2.0, 0.5, -2.0, -2.0], "value": [[[0.5185732153706116, 0.48142678462939037]], [[0.828107551746229, 0.17189244825377045]], [[0.9497769764818327, 0.05022302351816724]], [[0.0, 1.0]], [[0.9803018857735807, 0.01969811422641887]], [[1.0, 0.0]], [[0.0, 1.0]], [[0.0, 1.0]], [[0.0, 1.0]], [[0.2310136415557581, 0.7689863584442391]], [[0.627187547739886, 0.37281245226011195]], [[0.5839275519684767, 0.41607244803152255]], [[1.0, 0.0]], [[1.0, 0.0]], [[1.0, 0.0]], [[0.0, 1.0]], [[0.7628189379847683, 0.23718106201523195]], [[0.0, 1.0]], [[0.8654535318945608, 0.13454646810543927]], [[1.0, 0.0]], [[0.0, 1.0]], [[0.023469022535330238, 0.9765309774646694]], [[0.0, 1.0]], [[0.062330991320776984, 0.937669008679223]], [[1.0, 0.0]], [[0.0, 1.0]], [[0.2153937471247029, 0.784606252875294]], [[0.47815193648240273, 0.5218480635175967]], [[0.8200726312314298, 0.17992736876856857]], [[1.0, 0.0]], [[1.0, 0.0]], [[1.0, 0.0]], [[0.0, 1.0]], [[0.10529359709573329, 0.8947064029042655]], [[1.0, 0.0]], [[0.0, 1.0]], [[0.0, 1.0]], [[0.0, 1.0]], [[0.01276964347984783, 0.9872303565201519]], [[1.0, 0.0]], [[0.0, 1.0]], [[0.0, 1.0]], [[0.0, 1.0]]]}, {"children_left": [1, 2, 3, -1, 5, -1, 7, -1, -1, 10, -1, 12, -1, -1, 15, 16, 17, -1, 19, 20, -1, -1, -1, 24, -1, 26, -1, -1, 29, -1, 31, -1, -1], "children_right": [14, 9, 4, -1, 6, -1, 8, -1, -1, 11, -1, 13, -1, -1, 28, 23, 18, -1, 22, 21, -1, -1, -1, 25, -1, 27, -1, -1, 30, -1, 32, -1, -1], "feature": [2, 4, 1, -2, 1, -2, 3, -2, -2, 1, -2, 1, -2, -2, 3, 4, 1, -2, 0, 5, -2, -2, -2, 1, -2, 0, -2, -2, 0, -2, 5, -2, -2], "threshold": [0.5, 0.5, 5.5, -2.0, 20.5, -2.0, 0.5, -2.0, -2.0, 5.5, -2.0, 20.5, -2.0, -2.0, 0.5, 0.5, 5.5, -2.0, 3185.5899658203125, 0.5, -2.0, -2.0, -2.0, 5.5, -2.0, 3117.2049560546875, -2.0, -2.0, 2978.320068359375, -2.0, 0.5, -2.0, -2.0], "value": [[[0.5035919256385244, 0.4964080743614803]], [[0.805674365832549, 0.19432563416744947]], [[0.925491154196928, 0.0745088458030713]], [[0.0, 1.0]], [[0.969810280235625, 0.03018971976437478]], [[1.0, 0.0]], [[0.0, 1.0]], [[0.0, 1.0]], [[0.0, 1.0]], [[0.22545680791145395, 0.7745431920885438]], [[0.0, 1.0]], [[0.47887106724244277, 0.5211289327575572]], [[1.0, 0.0]], [[0.0, 1.0]], [[0.21180331125609675, 0.7881966887438998]], [[0.6148594276804279, 0.385140572319571]], [[0.81223083548665, 0.18776916451334846]], [[0.0, 1.0]], [[0.9358941371071503, 0.06410586289284986]], [[1.0, 0.0]], [[1.0, 0.0]], [[1.0, 0.0]], [[0.0, 1.0]], [[0.05772448410485219, 0.9422755158951477]], [[0.0, 1.0]], [[0.13402214818511674, 0.8659778518148833]], [[1.0, 0.0]], [[0.0, 1.0]], [[0.030918648685976057, 0.969081351314023]], [[1.0, 0.0]], [[0.0, 1.0]], [[0.0, 1.0]], [[0.0, 1.0]]]}, {"children_left": [1, 2, 3, 4, -1, -1, 7, -1, -1, 10, -1, 12, 13, -1, -1, -1, 17, -1, 19, -1, -1], "children_right": [16, 9, 6, 5, -1, -1, 8, -1, -1, 11, -1, 15, 14, -1, -1, -1, 18, -1, 20, -1, -1], "feature": [3, 2, 0, 4, -2, -2, 0, -2, -2, 1, -2, 1, 0, -2, -2, -2, 0, -2, 2, -2, -2], "threshold": [0.5, 0.5, 3164.405029296875, 0.5, -2.0, -2.0, 3445.9000244140625, -2.0, -2.0, 5.5, -2.0, 20.5, 16.78499984741211, -2.0, -2.0, -2.0, 2997.4801025390625, -2.0, 0.5, -2.0, -2.0], "value": [[[0.5000000000000057, 0.4999999999999983]], [[0.8450429261260823, 0.1549570738739163]], [[0.9682107187081205, 0.031789281291878746]], [[1.0, 0.0]], [[1.0, 0.0]], [[1.0, 0.0]], [[0.0, 1.0]], [[0.0, 1.0]], [[0.0, 1.0]], [[0.5714527631995228, 0.42854723680047857]], [[0.0, 1.0]], [[0.821484731899238, 0.17851526810076238]], [[1.0, 0.0]], [[1.0, 0.0]], [[1.0, 0.0]], [[0.0, 1.0]], [[0.10684523187460841, 0.893154768125389]], [[1.0, 0.0]], [[0.0, 1.0]], [[0.0, 1.0]], [[0.0, 1.0]]]}, {"children_left": [1, -1, 3, 4, -1, -1, -1], "children_right": [2, -1, 6, 5, -1, -1, -1], "feature": [1, -2, 1, 3, -2, -2, -2], "threshold": [5.5, -2.0, 20.5, 0.5, -2.0, -2.0, -2.0], "value": [[[0.49105697179651897, 0.5089430282034857]], [[0.0, 1.0]], [[0.7381974066719291, 0.26180259332807215]], [[1.0, 0.0]], [[1.0, 0.0]], [[1.0, 0.0]], [[0.0, 1.0]]]}, {"children_left": [1, 2, -1, -1, -1], "children_right": [4, 3, -1, -1, -1], "feature": [0, 0, -2, -2, -2], "threshold": [3017.344970703125, 15.320000171661377, -2.0, -2.0, -2.0], "value": [[[0.49833585767875, 0.5016641423212526]], [[1.0, 0.0]], [[1.0, 0.0]], [[1.0, 0.0]], [[0.0, 1.0]]]}, {"children_left": [1, 2, 3, 4, 5, 6, -1, -1, 9, -1, 11, 12, -1, -1, -1, 16, 17, -1, -1, 20, -1, 22, -1, -1, 25, 26, -1, -1, -1, 30, -1, 32, 33, -1, -1, 36, 37, -1, -1, -1, 41, -1, 43, -1, -1], "children_right": [40, 29, 24, 15, 8, 7, -1, -1, 10, -1, 14, 13, -1, -1, -1, 19, 18, -1, -1, 21, -1, 23, -1, -1, 28, 27, -1, -1, -1, 31, -1, 35, 34, -1, -1, 39, 38, -1, -1, -1, 42, -1, 44, -1, -1], "feature": [4, 5, 2, 3, 5, 0, -2, -2, 1, -2, 0, 0, -2, -2, -2, 5, 0, -2, -2, 1, -2, 0, -2, -2, 0, 5, -2, -2, -2, 1, -2, 2, 1, -2, -2, 0, 0, -2, -2, -2, 0, -2, 2, -2, -2], "threshold": [0.5, 1.5, 0.5, 0.5, 0.5, 4237.7999267578125, -2.0, -2.0, 5.5, -2.0, 4961.9998779296875, 23.260000228881836, -2.0, -2.0, -2.0, 0.5, 3015.260009765625, -2.0, -2.0, 5.5, -2.0, 3192.10498046875, -2.0, -2.0, 3083.93505859375, 0.5, -2.0, -2.0, -2.0, 5.5, -2.0, 0.5, 20.5, -2.0, -2.0, 3177.955078125, 51.98500061035156, -2.0, -2.0, -2.0, 3004.39501953125, -2.0, 0.5, -2.0, -2.0], "value": [[[0.5060063768501798, 0.49399362314982387]], [[0.7688146438045169, 0.23118535619548114]], [[0.7557886250377821, 0.24421137496221748]], [[0.9229514436409123, 0.07704855635908756]], [[0.9836885986387055, 0.016311401361294574]], [[0.9952867034542786, 0.004713296545721299]], [[1.0, 0.0]], [[0.0, 1.0]], [[0.9723479299819148, 0.027652070018085267]], [[0.0, 1.0]], [[0.9952826171632321, 0.0047173828367678885]], [[1.0, 0.0]], [[1.0, 0.0]], [[1.0, 0.0]], [[0.0, 1.0]], [[0.5845592896689229, 0.4154407103310745]], [[0.593166056636486, 0.40683394336351425]], [[1.0, 0.0]], [[0.0, 1.0]], [[0.5766569139723926, 0.4233430860276076]], [[0.0, 1.0]], [[0.9204978589242858, 0.07950214107571418]], [[1.0, 0.0]], [[0.0, 1.0]], [[0.42979502621890286, 0.5702049737810945]], [[1.0, 0.0]], [[1.0, 0.0]], [[1.0, 0.0]], [[0.0, 1.0]], [[0.7815564371797429, 0.2184435628202568]], [[0.0, 1.0]], [[0.9134083951202048, 0.08659160487979535]], [[0.9896602098313383, 0.01033979016866173]], [[1.0, 0.0]], [[0.0, 1.0]], [[0.7154241457337537, 0.2845758542662442]], [[1.0, 0.0]], [[1.0, 0.0]], [[1.0, 0.0]], [[0.0, 1.0]], [[0.06125714189612677, 0.9387428581038714]], [[1.0, 0.0]], [[0.0, 1.0]], [[0.0, 1.0]], [[0.0, 1.0]]]}, {"children_left": [1, 2, -1, -1, -1], "children_right": [4, 3, -1, -1, -1], "feature": [0, 3, -2, -2, -2], "threshold": [3009.3099365234375, 0.5, -2.0, -2.0, -2.0], "value": [[[0.5007155496816941, 0.4992844503183118]], [[1.0, 0.0]], [[1.0, 0.0]], [[1.0, 0.0]], [[0.0, 1.0]]]}, {"children_left": [1, 2, -1, -1, -1], "children_right": [4, 3, -1, -1, -1], "feature": [0, 0, -2, -2, -2], "threshold": [2999.695068359375, 11.03499984741211, -2.0, -2.0, -2.0], "value": [[[0.4971518532179127, 0.5028481467820904]], [[1.0, 0.0]], [[1.0, 0.0]], [[1.0, 0.0]], [[0.0, 1.0]]]}, {"children_left": [1, 2, -1, 4, 5, -1, -1, 8, -1, -1, 11, -1, 13, -1, -1], "children_right": [10, 3, -1, 7, 6, -1, -1, 9, -1, -1, 12, -1, 14, -1, -1], "feature": [4, 1, -2, 0, 5, -2, -2, 5, -2, -2, 0, -2, 3, -2, -2], "threshold": [0.5, 5.5, -2.0, 3020.5849609375, 0.5, -2.0, -2.0, 0.5, -2.0, -2.0, 3000.7149658203125, -2.0, 0.5, -2.0, -2.0], "value": [[[0.4936229776868046, 0.5063770223132003]], [[0.7565638575761517, 0.24343614242384615]], [[0.0, 1.0]], [[0.9015255384861466, 0.09847446151385233]], [[1.0, 0.0]], [[1.0, 0.0]], [[1.0, 0.0]], [[0.0, 1.0]], [[0.0, 1.0]], [[0.0, 1.0]], [[0.05931258094982792, 0.9406874190501703]], [[1.0, 0.0]], [[0.0, 1.0]], [[0.0, 1.0]], [[0.0, 1.0]]]}, {"children_left": [1, 2, -1, -1, -1], "children_right": [4, 3, -1, -1, -1], "feature": [0, 5, -2, -2, -2], "threshold": [3000.2650146484375, 0.5, -2.0, -2.0, -2.0], "value": [[[0.48689734207905155, 0.5131026579209534]], [[1.0, 0.0]], [[1.0, 0.0]], [[1.0, 0.0]], [[0.0, 1.0]]]}, {"children_left": [1, 2, 3, -1, 5, 6, 7, 8, -1, -1, -1, 12, 13, -1, -1, -1, 17, 18, -1, -1, 21, -1, 23, -1, -1, 26, 27, 28, 29, -1, -1, -1, 33, -1, -1, 36, 37, -1, -1, -1, 41, 42, -1, -1, 45, -1, -1], "children_right": [40, 25, 4, -1, 16, 11, 10, 9, -1, -1, -1, 15, 14, -1, -1, -1, 20, 19, -1, -1, 22, -1, 24, -1, -1, 35, 32, 31, 30, -1, -1, -1, 34, -1, -1, 39, 38, -1, -1, -1, 44, 43, -1, -1, 46, -1, -1], "feature": [2, 3, 1, -2, 4, 5, 1, 5, -2, -2, -2, 1, 1, -2, -2, -2, 5, 1, -2, -2, 5, -2, 0, -2, -2, 5, 4, 0, 5, -2, -2, -2, 0, -2, -2, 0, 1, -2, -2, -2, 0, 4, -2, -2, 0, -2, -2], "threshold": [0.5, 0.5, 5.5, -2.0, 0.5, 1.5, 20.5, 0.5, -2.0, -2.0, -2.0, 20.5, 7.5, -2.0, -2.0, -2.0, 0.5, 20.5, -2.0, -2.0, 1.5, -2.0, 3907.7900390625, -2.0, -2.0, 2.5, 0.5, 3015.260009765625, 0.5, -2.0, -2.0, -2.0, 2967.0050048828125, -2.0, -2.0, 3138.3099365234375, 7.5, -2.0, -2.0, -2.0, 2998.4400634765625, 0.5, -2.0, -2.0, 3017.6800537109375, -2.0, -2.0], "value": [[[0.4980987463608876, 0.5019012536391174]], [[0.8122049302042053, 0.18779506979579388]], [[0.9638824890949783, 0.036117510905021445]], [[0.0, 1.0]], [[0.9876637943366098, 0.012336205663389863]], [[0.9929022073735962, 0.007097792626403702]], [[0.9950755535994439, 0.004924446400556056]], [[1.0, 0.0]], [[1.0, 0.0]], [[1.0, 0.0]], [[0.0, 1.0]], [[0.9908924533234863, 0.00910754667651349]], [[1.0, 0.0]], [[1.0, 0.0]], [[1.0, 0.0]], [[0.0, 1.0]], [[0.89212744221683, 0.10787255778316956]], [[0.8372899311407526, 0.162710068859248]], [[1.0, 0.0]], [[0.0, 1.0]], [[0.9119180438976071, 0.08808195610239317]], [[1.0, 0.0]], [[0.870778997284791, 0.12922100271520912]], [[1.0, 0.0]], [[0.0, 1.0]], [[0.34255162093962804, 0.6574483790603697]], [[0.30544197211842655, 0.6945580278815707]], [[0.6427462480593384, 0.35725375194065684]], [[1.0, 0.0]], [[1.0, 0.0]], [[1.0, 0.0]], [[0.0, 1.0]], [[0.0406857392443765, 0.9593142607556235]], [[1.0, 0.0]], [[0.0, 1.0]], [[0.5112760205160147, 0.4887239794839843]], [[1.0, 0.0]], [[1.0, 0.0]], [[1.0, 0.0]], [[0.0, 1.0]], [[0.20188197645624667, 0.7981180235437497]], [[1.0, 0.0]], [[1.0, 0.0]], [[1.0, 0.0]], [[0.0, 1.0]], [[0.0, 1.0]], [[0.0, 1.0]]]}, {"children_left": [1, 2, -1, 4, -1, -1, 7, 8, -1, 10, 11, -1, -1, 14, -1, 16, -1, -1, 19, -1, 21, -1, -1], "children_right": [6, 3, -1, 5, -1, -1, 18, 9, -1, 13, 12, -1, -1, 15, -1, 17, -1, -1, 20, -1, 22, -1, -1], "feature": [3, 0, -2, 2, -2, -2, 5, 1, -2, 2, 1, -2, -2, 0, -2, 4, -2, -2, 0, -2, 5, -2, -2], "threshold": [0.5, 3029.135009765625, -2.0, 0.5, -2.0, -2.0, 0.5, 5.5, -2.0, 0.5, 20.5, -2.0, -2.0, 3219.9100341796875, -2.0, 0.5, -2.0, -2.0, 3015.260009765625, -2.0, 1.5, -2.0, -2.0], "value": [[[0.510883595591714, 0.4891164044082898]], [[0.8508296494583064, 0.1491703505416927]], [[1.0, 0.0]], [[0.0, 1.0]], [[0.0, 1.0]], [[0.0, 1.0]], [[0.10797890936592554, 0.8920210906340722]], [[0.12209730989881373, 0.8779026901011844]], [[0.0, 1.0]], [[0.26645349297522836, 0.7335465070247715]], [[0.7201192744139813, 0.27988072558601873]], [[1.0, 0.0]], [[0.0, 1.0]], [[0.06420666659281495, 0.9357933334071848]], [[1.0, 0.0]], [[0.0, 1.0]], [[0.0, 1.0]], [[0.0, 1.0]], [[0.10386128891214468, 0.8961387110878536]], [[1.0, 0.0]], [[0.0, 1.0]], [[0.0, 1.0]], [[0.0, 1.0]]]}, {"children_left": [1, -1, 3, 4, -1, 6, -1, -1, 9, 10, 11, 12, -1, -1, -1, 16, -1, -1, 19, -1, 21, -1, -1], "children_right": [2, -1, 8, 5, -1, 7, -1, -1, 18, 15, 14, 13, -1, -1, -1, 17, -1, -1, 20, -1, 22, -1, -1], "feature": [1, -2, 3, 1, -2, 2, -2, -2, 2, 4, 1, 0, -2, -2, -2, 1, -2, -2, 0, -2, 0, -2, -2], "threshold": [5.5, -2.0, 0.5, 20.5, -2.0, 0.5, -2.0, -2.0, 0.5, 0.5, 20.5, 40.099998474121094, -2.0, -2.0, -2.0, 20.5, -2.0, -2.0, 3017.1700439453125, -2.0, 3048.1800537109375, -2.0, -2.0], "value": [[[0.5077060340654929, 0.49229396593451175]], [[0.0, 1.0]], [[0.7554303290069427, 0.24456967099305812]], [[0.9445982595008651, 0.05540174049913486]], [[1.0, 0.0]], [[0.0, 1.0]], [[0.0, 1.0]], [[0.0, 1.0]], [[0.2661470183620361, 0.7338529816379626]], [[0.6074316980849227, 0.3925683019150752]], [[0.8519544888207341, 0.1480455111792647]], [[1.0, 0.0]], [[1.0, 0.0]], [[1.0, 0.0]], [[0.0, 1.0]], [[0.07740614334470988, 0.92259385665529]], [[1.0, 0.0]], [[0.0, 1.0]], [[0.08805073881654409, 0.9119492611834549]], [[1.0, 0.0]], [[0.0, 1.0]], [[0.0, 1.0]], [[0.0, 1.0]]]}, {"children_left": [1, 2, -1, -1, -1], "children_right": [4, 3, -1, -1, -1], "feature": [0, 5, -2, -2, -2], "threshold": [3000.2650146484375, 0.5, -2.0, -2.0, -2.0], "value": [[[0.4990481253542815, 0.5009518746457228]], [[1.0, 0.0]], [[1.0, 0.0]], [[1.0, 0.0]], [[0.0, 1.0]]]}, {"children_left": [1, 2, -1, -1, -1], "children_right": [4, 3, -1, -1, -1], "feature": [0, 1, -2, -2, -2], "threshold": [3009.2750244140625, 7.5, -2.0, -2.0, -2.0], "value": [[[0.494325991639354, 0.5056740083606497]], [[1.0, 0.0]], [[1.0, 0.0]], [[1.0, 0.0]], [[0.0, 1.0]]]}, {"children_left": [1, 2, 3, -1, -1, 6, -1, -1, 9, -1, 11, -1, -1], "children_right": [8, 5, 4, -1, -1, 7, -1, -1, 10, -1, 12, -1, -1], "feature": [3, 0, 0, -2, -2, 4, -2, -2, 0, -2, 4, -2, -2], "threshold": [0.5, 3029.135009765625, 13.644999980926514, -2.0, -2.0, 0.5, -2.0, -2.0, 3006.5250244140625, -2.0, 0.5, -2.0, -2.0], "value": [[[0.4966793357912631, 0.5033206642087417]], [[0.8355463860600485, 0.16445361393995075]], [[1.0, 0.0]], [[1.0, 0.0]], [[1.0, 0.0]], [[0.0, 1.0]], [[0.0, 1.0]], [[0.0, 1.0]], [[0.10509424691684983, 0.8949057530831475]], [[1.0, 0.0]], [[0.0, 1.0]], [[0.0, 1.0]], [[0.0, 1.0]]]}, {"children_left": [1, 2, -1, -1, -1], "children_right": [4, 3, -1, -1, -1], "feature": [0, 3, -2, -2, -2], "threshold": [3009.2750244140625, 0.5, -2.0, -2.0, -2.0], "value": [[[0.5055222075576993, 0.49447779244230605]], [[1.0, 0.0]], [[1.0, 0.0]], [[1.0, 0.0]], [[0.0, 1.0]]]}, {"children_left": [1, 2, 3, 4, -1, 6, -1, -1, 9, 10, -1, -1, -1, 14, 15, -1, 17, -1, -1, 20, 21, 22, -1, -1, -1, 26, 27, -1, -1, 30, -1, -1, 33, 34, 35, -1, -1, -1, 39, 40, 41, -1, 43, -1, -1, 46, -1, -1, 49, -1, 51, -1, -1], "children_right": [32, 13, 8, 5, -1, 7, -1, -1, 12, 11, -1, -1, -1, 19, 16, -1, 18, -1, -1, 25, 24, 23, -1, -1, -1, 29, 28, -1, -1, 31, -1, -1, 38, 37, 36, -1, -1, -1, 48, 45, 42, -1, 44, -1, -1, 47, -1, -1, 50, -1, 52, -1, -1], "feature": [3, 2, 4, 0, -2, 1, -2, -2, 0, 0, -2, -2, -2, 5, 1, -2, 0, -2, -2, 4, 0, 5, -2, -2, -2, 5, 0, -2, -2, 0, -2, -2, 2, 0, 0, -2, -2, -2, 5, 4, 0, -2, 1, -2, -2, 0, -2, -2, 1, -2, 0, -2, -2], "threshold": [0.5, 0.5, 0.5, 3173.6400146484375, -2.0, 0.5, -2.0, -2.0, 3156.2750244140625, 55.010000228881836, -2.0, -2.0, -2.0, 0.5, 5.5, -2.0, 3099.06494140625, -2.0, -2.0, 0.5, 3181.2249755859375, 1.5, -2.0, -2.0, -2.0, 1.5, 2902.705078125, -2.0, -2.0, 3008.4549560546875, -2.0, -2.0, 0.5, 3006.5250244140625, 22.960000038146973, -2.0, -2.0, -2.0, 0.5, 0.5, 3016.72509765625, -2.0, 0.5, -2.0, -2.0, 3064.929931640625, -2.0, -2.0, 5.5, -2.0, 3065.610107421875, -2.0, -2.0], "value": [[[0.5079494875109984, 0.4920505124890027]], [[0.8457287237951876, 0.15427127620481204]], [[0.9488203809693314, 0.05117961903066864]], [[0.9871994572451407, 0.012800542754859512]], [[1.0, 0.0]], [[0.0, 1.0]], [[0.0, 1.0]], [[0.0, 1.0]], [[0.5288711190832373, 0.47112888091676053]], [[1.0, 0.0]], [[1.0, 0.0]], [[1.0, 0.0]], [[0.0, 1.0]], [[0.5984189681431876, 0.40158103185681226]], [[0.6393288525899699, 0.36067114741002854]], [[0.0, 1.0]], [[0.8592669720949605, 0.14073302790503955]], [[1.0, 0.0]], [[0.0, 1.0]], [[0.5868904568953479, 0.41310954310464937]], [[0.799504615766742, 0.20049538423325658]], [[1.0, 0.0]], [[1.0, 0.0]], [[1.0, 0.0]], [[0.0, 1.0]], [[0.0832281853307095, 0.9167718146692903]], [[0.12113921581377203, 0.878860784186228]], [[1.0, 0.0]], [[0.0, 1.0]], [[0.06264343177061003, 0.93735656822939]], [[1.0, 0.0]], [[0.0, 1.0]], [[0.11011585620484361, 0.8898841437951533]], [[0.33783034842170745, 0.6621696515782907]], [[1.0, 0.0]], [[1.0, 0.0]], [[1.0, 0.0]], [[0.0, 1.0]], [[0.03135089182860249, 0.9686491081713965]], [[0.029720028715003587, 0.9702799712849961]], [[0.08629372993070807, 0.9137062700692914]], [[1.0, 0.0]], [[0.0, 1.0]], [[0.0, 1.0]], [[0.0, 1.0]], [[0.0, 1.0]], [[0.0, 1.0]], [[0.0, 1.0]], [[0.03196311999984469, 0.9680368800001549]], [[0.0, 1.0]], [[0.08601568839599674, 0.9139843116040032]], [[1.0, 0.0]], [[0.0, 1.0]]]}, {"children_left": [1, 2, -1, 4, -1, 6, -1, -1, 9, 10, 11, 12, -1, -1, -1, 16, 17, 18, -1, 20, -1, -1, 23, -1, 25, -1, -1, 28, -1, 30, 31, -1, -1, 34, -1, -1, 37, -1, 39, -1, -1], "children_right": [8, 3, -1, 5, -1, 7, -1, -1, 36, 15, 14, 13, -1, -1, -1, 27, 22, 19, -1, 21, -1, -1, 24, -1, 26, -1, -1, 29, -1, 33, 32, -1, -1, 35, -1, -1, 38, -1, 40, -1, -1], "feature": [3, 1, -2, 1, -2, 5, -2, -2, 5, 2, 0, 1, -2, -2, -2, 4, 5, 0, -2, 5, -2, -2, 0, -2, 1, -2, -2, 5, -2, 5, 0, -2, -2, 0, -2, -2, 0, -2, 2, -2, -2], "threshold": [0.5, 5.5, -2.0, 20.5, -2.0, 0.5, -2.0, -2.0, 2.5, 0.5, 2995.169921875, 7.5, -2.0, -2.0, -2.0, 0.5, 1.5, 2994.8499755859375, -2.0, 0.5, -2.0, -2.0, 3177.955078125, -2.0, 0.5, -2.0, -2.0, 0.5, -2.0, 1.5, 1708.2100524902344, -2.0, -2.0, 2586.2249755859375, -2.0, -2.0, 2952.8699951171875, -2.0, 0.5, -2.0, -2.0], "value": [[[0.4864381415577487, 0.5135618584422554]], [[0.8470759786639549, 0.1529240213360437]], [[0.0, 1.0]], [[0.9470012542734599, 0.05299874572653905]], [[1.0, 0.0]], [[0.0, 1.0]], [[0.0, 1.0]], [[0.0, 1.0]], [[0.10094112251621357, 0.8990588774837842]], [[0.09419951416198462, 0.9058004858380125]], [[0.27434545978880426, 0.7256545402111934]], [[1.0, 0.0]], [[1.0, 0.0]], [[1.0, 0.0]], [[0.0, 1.0]], [[0.034079572242271546, 0.9659204277577274]], [[0.1050984050043536, 0.8949015949956454]], [[0.09238360104301387, 0.9076163989569853]], [[1.0, 0.0]], [[0.0, 1.0]], [[0.0, 1.0]], [[0.0, 1.0]], [[0.126313503226874, 0.8736864967731258]], [[1.0, 0.0]], [[0.0, 1.0]], [[0.0, 1.0]], [[0.0, 1.0]], [[0.0011171006949649556, 0.998882899305035]], [[0.0, 1.0]], [[0.0017362437861484499, 0.9982637562138515]], [[0.0021079859060265994, 0.9978920140939733]], [[1.0, 0.0]], [[0.0, 1.0]], [[0.001283540504900603, 0.9987164594950994]], [[1.0, 0.0]], [[0.0, 1.0]], [[0.12595903921164178, 0.8740409607883567]], [[1.0, 0.0]], [[0.0, 1.0]], [[0.0, 1.0]], [[0.0, 1.0]]]}, {"children_left": [1, 2, -1, 4, 5, 6, -1, 8, -1, -1, 11, 12, -1, -1, -1, 16, 17, -1, -1, -1, 21, 22, -1, 24, 25, -1, -1, 28, -1, -1, 31, -1, 33, -1, -1], "children_right": [20, 3, -1, 15, 10, 7, -1, 9, -1, -1, 14, 13, -1, -1, -1, 19, 18, -1, -1, -1, 30, 23, -1, 27, 26, -1, -1, 29, -1, -1, 32, -1, 34, -1, -1], "feature": [2, 1, -2, 4, 3, 0, -2, 0, -2, -2, 0, 0, -2, -2, -2, 0, 0, -2, -2, -2, 3, 1, -2, 4, 1, -2, -2, 0, -2, -2, 0, -2, 4, -2, -2], "threshold": [0.5, 5.5, -2.0, 0.5, 0.5, 3306.6649169921875, -2.0, 3788.6749267578125, -2.0, -2.0, 3015.260009765625, 23.039999961853027, -2.0, -2.0, -2.0, 3011.4649658203125, 54.224998474121094, -2.0, -2.0, -2.0, 0.5, 5.5, -2.0, 0.5, 20.5, -2.0, -2.0, 3086.699951171875, -2.0, -2.0, 3013.9300537109375, -2.0, 0.5, -2.0, -2.0], "value": [[[0.48874008599759877, 0.5112599140024052]], [[0.8073480184403979, 0.19265198155959995]], [[0.0, 1.0]], [[0.9277864965663974, 0.0722135034336017]], [[0.968789803622378, 0.031210196377621555]], [[0.988324586851391, 0.011675413148608895]], [[1.0, 0.0]], [[0.0, 1.0]], [[0.0, 1.0]], [[0.0, 1.0]], [[0.8090210562904645, 0.19097894370953503]], [[1.0, 0.0]], [[1.0, 0.0]], [[1.0, 0.0]], [[0.0, 1.0]], [[0.4956716417910438, 0.5043283582089543]], [[1.0, 0.0]], [[1.0, 0.0]], [[1.0, 0.0]], [[0.0, 1.0]], [[0.19542906959456208, 0.8045709304054345]], [[0.5756859471777301, 0.424314052822269]], [[0.0, 1.0]], [[0.8131477961107738, 0.18685220388922702]], [[0.9493955243718438, 0.05060447562815612]], [[1.0, 0.0]], [[0.0, 1.0]], [[0.11853482556992789, 0.8814651744300722]], [[1.0, 0.0]], [[0.0, 1.0]], [[0.028580827813979214, 0.9714191721860198]], [[1.0, 0.0]], [[0.0, 1.0]], [[0.0, 1.0]], [[0.0, 1.0]]]}, {"children_left": [1, 2, -1, 4, -1, -1, 7, 8, 9, -1, -1, -1, 13, -1, 15, -1, -1], "children_right": [6, 3, -1, 5, -1, -1, 12, 11, 10, -1, -1, -1, 14, -1, 16, -1, -1], "feature": [3, 0, -2, 2, -2, -2, 2, 0, 0, -2, -2, -2, 0, -2, 4, -2, -2], "threshold": [0.5, 3029.135009765625, -2.0, 0.5, -2.0, -2.0, 0.5, 3006.5250244140625, 22.889999389648438, -2.0, -2.0, -2.0, 2994.18994140625, -2.0, 0.5, -2.0, -2.0], "value": [[[0.5094136116479738, 0.49058638835202906]], [[0.8560762790244874, 0.14392372097551234]], [[1.0, 0.0]], [[0.0, 1.0]], [[0.0, 1.0]], [[0.0, 1.0]], [[0.1097234153011004, 0.8902765846988978]], [[0.3553987027851965, 0.6446012972148004]], [[1.0, 0.0]], [[1.0, 0.0]], [[1.0, 0.0]], [[0.0, 1.0]], [[0.03283768348914918, 0.9671623165108497]], [[1.0, 0.0]], [[0.0, 1.0]], [[0.0, 1.0]], [[0.0, 1.0]]]}, {"children_left": [1, 2, -1, 4, -1, -1, 7, -1, 9, -1, -1], "children_right": [6, 3, -1, 5, -1, -1, 8, -1, 10, -1, -1], "feature": [3, 0, -2, 0, -2, -2, 1, -2, 1, -2, -2], "threshold": [0.5, 3030.304931640625, -2.0, 3116.135009765625, -2.0, -2.0, 5.5, -2.0, 20.5, -2.0, -2.0], "value": [[[0.5038326529575922, 0.4961673470424121]], [[0.8572019378337487, 0.14279806216625016]], [[1.0, 0.0]], [[0.0, 1.0]], [[0.0, 1.0]], [[0.0, 1.0]], [[0.10538922582928702, 0.8946107741707121]], [[0.0, 1.0]], [[0.261313435099072, 0.7386865649009302]], [[1.0, 0.0]], [[0.0, 1.0]]]}, {"children_left": [1, 2, -1, -1, -1], "children_right": [4, 3, -1, -1, -1], "feature": [0, 0, -2, -2, -2], "threshold": [3018.044921875, 15.90999984741211, -2.0, -2.0, -2.0], "value": [[[0.5160751968480978, 0.48392480315190567]], [[1.0, 0.0]], [[1.0, 0.0]], [[1.0, 0.0]], [[0.0, 1.0]]]}, {"children_left": [1, 2, -1, -1, -1], "children_right": [4, 3, -1, -1, -1], "feature": [0, 0, -2, -2, -2], "threshold": [2999.800048828125, 11.03499984741211, -2.0, -2.0, -2.0], "value": [[[0.5011933678343988, 0.4988066321656059]], [[1.0, 0.0]], [[1.0, 0.0]], [[1.0, 0.0]], [[0.0, 1.0]]]}, {"children_left": [1, 2, -1, 4, -1, 6, -1, -1, 9, -1, 11, -1, -1], "children_right": [8, 3, -1, 5, -1, 7, -1, -1, 10, -1, 12, -1, -1], "feature": [3, 1, -2, 0, -2, 4, -2, -2, 0, -2, 4, -2, -2], "threshold": [0.5, 5.5, -2.0, 3092.090087890625, -2.0, 0.5, -2.0, -2.0, 2996.85009765625, -2.0, 0.5, -2.0, -2.0], "value": [[[0.4933889448992224, 0.5066110551007822]], [[0.8371552883783642, 0.16284471162163516]], [[0.0, 1.0]], [[0.9284262514088458, 0.07157374859115394]], [[1.0, 0.0]], [[0.0, 1.0]], [[0.0, 1.0]], [[0.0, 1.0]], [[0.10329271031089891, 0.8967072896890986]], [[1.0, 0.0]], [[0.0, 1.0]], [[0.0, 1.0]], [[0.0, 1.0]]]}, {"children_left": [1, 2, 3, 4, -1, -1, 7, -1, -1, 10, 11, 12, 13, -1, -1, -1, 17, -1, -1, 20, -1, 22, -1, -1, 25, -1, 27, -1, -1], "children_right": [24, 9, 6, 5, -1, -1, 8, -1, -1, 19, 16, 15, 14, -1, -1, -1, 18, -1, -1, 21, -1, 23, -1, -1, 26, -1, 28, -1, -1], "feature": [3, 4, 0, 2, -2, -2, 0, -2, -2, 2, 5, 0, 1, -2, -2, -2, 1, -2, -2, 0, -2, 1, -2, -2, 0, -2, 4, -2, -2], "threshold": [0.5, 0.5, 3085.760009765625, 0.5, -2.0, -2.0, 3219.0050048828125, -2.0, -2.0, 0.5, 2.5, 3156.2750244140625, 7.5, -2.0, -2.0, -2.0, 7.5, -2.0, -2.0, 3070.2750244140625, -2.0, 0.5, -2.0, -2.0, 2997.4801025390625, -2.0, 0.5, -2.0, -2.0], "value": [[[0.5016718154602379, 0.49832818453976435]], [[0.8456005995028532, 0.15439940049714604]], [[0.93628553067021, 0.06371446932978893]], [[1.0, 0.0]], [[1.0, 0.0]], [[1.0, 0.0]], [[0.0, 1.0]], [[0.0, 1.0]], [[0.0, 1.0]], [[0.27468045662991514, 0.7253195433700852]], [[0.7372391054154075, 0.2627608945845902]], [[0.6649745186301522, 0.33502548136984683]], [[1.0, 0.0]], [[1.0, 0.0]], [[1.0, 0.0]], [[0.0, 1.0]], [[1.0, 0.0]], [[1.0, 0.0]], [[1.0, 0.0]], [[0.06327035441634318, 0.9367296455836565]], [[1.0, 0.0]], [[0.0, 1.0]], [[0.0, 1.0]], [[0.0, 1.0]], [[0.10478462327528602, 0.8952153767247114]], [[1.0, 0.0]], [[0.0, 1.0]], [[0.0, 1.0]], [[0.0, 1.0]]]}, {"children_left": [1, -1, 3, 4, 5, 6, -1, -1, 9, 10, -1, 12, -1, -1, 15, 16, -1, -1, -1, 20, 21, -1, -1, -1, 25, -1, 27, -1, -1], "children_right": [2, -1, 24, 19, 8, 7, -1, -1, 14, 11, -1, 13, -1, -1, 18, 17, -1, -1, -1, 23, 22, -1, -1, -1, 26, -1, 28, -1, -1], "feature": [1, -2, 4, 3, 5, 0, -2, -2, 5, 2, -2, 1, -2, -2, 1, 0, -2, -2, -2, 0, 1, -2, -2, -2, 0, -2, 0, -2, -2], "threshold": [5.5, -2.0, 0.5, 0.5, 0.5, 3803.4649658203125, -2.0, -2.0, 1.5, 0.5, -2.0, 20.5, -2.0, -2.0, 20.5, 13.21500015258789, -2.0, -2.0, -2.0, 3015.260009765625, 7.5, -2.0, -2.0, -2.0, 3007.06494140625, -2.0, 3047.655029296875, -2.0, -2.0], "value": [[[0.49597171766670173, 0.5040282823333041]], [[0.0, 1.0]], [[0.7392408045230094, 0.26075919547699106]], [[0.9081384719423387, 0.09186152805765979]], [[0.9843258845153064, 0.015674115484693135]], [[0.9923085852941245, 0.007691414705875564]], [[1.0, 0.0]], [[0.0, 1.0]], [[0.9818084911653552, 0.01819150883464484]], [[0.9776792791840617, 0.022320720815938007]], [[1.0, 0.0]], [[0.9021501484109173, 0.09784985158908267]], [[1.0, 0.0]], [[0.0, 1.0]], [[0.9838057262261928, 0.016194273773807086]], [[1.0, 0.0]], [[1.0, 0.0]], [[1.0, 0.0]], [[0.0, 1.0]], [[0.535457012318423, 0.4645429876815726]], [[1.0, 0.0]], [[1.0, 0.0]], [[1.0, 0.0]], [[0.0, 1.0]], [[0.14222714092263555, 0.8577728590773642]], [[1.0, 0.0]], [[0.0, 1.0]], [[0.0, 1.0]], [[0.0, 1.0]]]}, {"children_left": [1, 2, -1, -1, -1], "children_right": [4, 3, -1, -1, -1], "feature": [0, 2, -2, -2, -2], "threshold": [3017.344970703125, 0.5, -2.0, -2.0, -2.0], "value": [[[0.5060063768501799, 0.4939936231498245]], [[1.0, 0.0]], [[1.0, 0.0]], [[1.0, 0.0]], [[0.0, 1.0]]]}, {"children_left": [1, 2, -1, -1, -1], "children_right": [4, 3, -1, -1, -1], "feature": [0, 3, -2, -2, -2], "threshold": [3000.2650146484375, 0.5, -2.0, -2.0, -2.0], "value": [[[0.5031109476401242, 0.49688905235987935]], [[1.0, 0.0]], [[1.0, 0.0]], [[1.0, 0.0]], [[0.0, 1.0]]]}, {"children_left": [1, -1, 3, 4, -1, -1, -1], "children_right": [2, -1, 6, 5, -1, -1, -1], "feature": [1, -2, 0, 0, -2, -2, -2], "threshold": [5.5, -2.0, 3018.044921875, 11.03499984741211, -2.0, -2.0, -2.0], "value": [[[0.5128527504037147, 0.48714724959628736]], [[0.0, 1.0]], [[0.7541784327874823, 0.24582156721251797]], [[1.0, 0.0]], [[1.0, 0.0]], [[1.0, 0.0]], [[0.0, 1.0]]]}, {"children_left": [1, 2, -1, -1, -1], "children_right": [4, 3, -1, -1, -1], "feature": [0, 4, -2, -2, -2], "threshold": [3000.2650146484375, 0.5, -2.0, -2.0, -2.0], "value": [[[0.4908246067108882, 0.509175393289116]], [[1.0, 0.0]], [[1.0, 0.0]], [[1.0, 0.0]], [[0.0, 1.0]]]}, {"children_left": [1, 2, -1, 4, -1, 6, -1, -1, 9, -1, 11, -1, -1], "children_right": [8, 3, -1, 5, -1, 7, -1, -1, 10, -1, 12, -1, -1], "feature": [3, 1, -2, 0, -2, 5, -2, -2, 0, -2, 0, -2, -2], "threshold": [0.5, 5.5, -2.0, 3108.0849609375, -2.0, 0.5, -2.0, -2.0, 3014.56005859375, -2.0, 3036.0899658203125, -2.0, -2.0], "value": [[[0.5113748985032378, 0.4886251014967646]], [[0.8450000683662381, 0.15499993163376058]], [[0.0, 1.0]], [[0.9465747786589641, 0.0534252213410349]], [[1.0, 0.0]], [[0.0, 1.0]], [[0.0, 1.0]], [[0.0, 1.0]], [[0.1057366209328665, 0.8942633790671314]], [[1.0, 0.0]], [[0.0, 1.0]], [[0.0, 1.0]], [[0.0, 1.0]]]}, {"children_left": [1, -1, 3, 4, 5, 6, 7, -1, -1, 10, -1, -1, 13, -1, 15, -1, -1, 18, 19, -1, -1, -1, 23, -1, 25, -1, -1], "children_right": [2, -1, 22, 17, 12, 9, 8, -1, -1, 11, -1, -1, 14, -1, 16, -1, -1, 21, 20, -1, -1, -1, 24, -1, 26, -1, -1], "feature": [1, -2, 4, 2, 5, 0, 0, -2, -2, 1, -2, -2, 0, -2, 3, -2, -2, 0, 0, -2, -2, -2, 0, -2, 3, -2, -2], "threshold": [5.5, -2.0, 0.5, 0.5, 0.5, 3811.3150634765625, 21.545000076293945, -2.0, -2.0, 22.0, -2.0, -2.0, 3198.1949462890625, -2.0, 0.5, -2.0, -2.0, 3018.760009765625, 16.78499984741211, -2.0, -2.0, -2.0, 3011.4649658203125, -2.0, 0.5, -2.0, -2.0], "value": [[[0.48966503922353083, 0.510334960776474]], [[0.0, 1.0]], [[0.7254416659257553, 0.2745583340742458]], [[0.8905866145662258, 0.10941338543377382]], [[0.9771408012619948, 0.022859198738005022]], [[0.9646155779420698, 0.03538442205792992]], [[1.0, 0.0]], [[1.0, 0.0]], [[1.0, 0.0]], [[0.0, 1.0]], [[0.0, 1.0]], [[0.0, 1.0]], [[0.9816400834423875, 0.018359916557612502]], [[1.0, 0.0]], [[0.0, 1.0]], [[0.0, 1.0]], [[0.0, 1.0]], [[0.661003636150086, 0.3389963638499106]], [[1.0, 0.0]], [[1.0, 0.0]], [[1.0, 0.0]], [[0.0, 1.0]], [[0.14285196593585794, 0.8571480340641403]], [[1.0, 0.0]], [[0.0, 1.0]], [[0.0, 1.0]], [[0.0, 1.0]]]}, {"children_left": [1, 2, -1, -1, -1], "children_right": [4, 3, -1, -1, -1], "feature": [0, 5, -2, -2, -2], "threshold": [3009.3099365234375, 0.5, -2.0, -2.0, -2.0], "value": [[[0.5072196119314254, 0.4927803880685795]], [[1.0, 0.0]], [[1.0, 0.0]], [[1.0, 0.0]], [[0.0, 1.0]]]}, {"children_left": [1, 2, 3, -1, -1, 6, -1, -1, 9, 10, -1, 12, -1, -1, 15, -1, 17, -1, -1], "children_right": [8, 5, 4, -1, -1, 7, -1, -1, 14, 11, -1, 13, -1, -1, 16, -1, 18, -1, -1], "feature": [3, 0, 1, -2, -2, 4, -2, -2, 5, 1, -2, 1, -2, -2, 0, -2, 4, -2, -2], "threshold": [0.5, 3029.135009765625, 7.5, -2.0, -2.0, 0.5, -2.0, -2.0, 0.5, 5.5, -2.0, 20.5, -2.0, -2.0, 3016.64501953125, -2.0, 0.5, -2.0, -2.0], "value": [[[0.49012841521578415, 0.5098715847842196]], [[0.8315622074024908, 0.16843779259750752]], [[1.0, 0.0]], [[1.0, 0.0]], [[1.0, 0.0]], [[0.0, 1.0]], [[0.0, 1.0]], [[0.0, 1.0]], [[0.10075268008492973, 0.8992473199150677]], [[0.1126076272299234, 0.8873923727700745]], [[0.0, 1.0]], [[0.26653280908521304, 0.733467190914787]], [[1.0, 0.0]], [[0.0, 1.0]], [[0.09698089997728772, 0.9030191000227097]], [[1.0, 0.0]], [[0.0, 1.0]], [[0.0, 1.0]], [[0.0, 1.0]]]}, {"children_left": [1, 2, 3, -1, -1, -1, 7, -1, 9, -1, -1], "children_right": [6, 5, 4, -1, -1, -1, 8, -1, 10, -1, -1], "feature": [4, 0, 5, -2, -2, -2, 0, -2, 0, -2, -2], "threshold": [0.5, 3018.010009765625, 0.5, -2.0, -2.0, -2.0, 2996.3599853515625, -2.0, 3026.7249755859375, -2.0, -2.0], "value": [[[0.5072196119314242, 0.4927803880685772]], [[0.7609241684060251, 0.23907583159397416]], [[1.0, 0.0]], [[1.0, 0.0]], [[1.0, 0.0]], [[0.0, 1.0]], [[0.06385059441610205, 0.936149405583896]], [[1.0, 0.0]], [[0.0, 1.0]], [[0.0, 1.0]], [[0.0, 1.0]]]}, {"children_left": [1, 2, -1, 4, -1, -1, 7, 8, -1, 10, -1, -1, 13, 14, -1, 16, -1, -1, 19, -1, -1], "children_right": [6, 3, -1, 5, -1, -1, 12, 9, -1, 11, -1, -1, 18, 15, -1, 17, -1, -1, 20, -1, -1], "feature": [3, 0, -2, 5, -2, -2, 2, 1, -2, 1, -2, -2, 4, 0, -2, 1, -2, -2, 0, -2, -2], "threshold": [0.5, 3164.300048828125, -2.0, 0.5, -2.0, -2.0, 0.5, 5.5, -2.0, 20.5, -2.0, -2.0, 0.5, 2996.85009765625, -2.0, 0.5, -2.0, -2.0, 2588.804931640625, -2.0, -2.0], "value": [[[0.5028706966463138, 0.49712930335368866]], [[0.8480636044086102, 0.15193639559138927]], [[1.0, 0.0]], [[0.0, 1.0]], [[0.0, 1.0]], [[0.0, 1.0]], [[0.1019494320889093, 0.8980505679110883]], [[0.3356143630737497, 0.6643856369262474]], [[0.0, 1.0]], [[0.5797856543593027, 0.42021434564069726]], [[1.0, 0.0]], [[0.0, 1.0]], [[0.027907955360617256, 0.9720920446393825]], [[0.07750329560611832, 0.9224967043938804]], [[1.0, 0.0]], [[0.0, 1.0]], [[0.0, 1.0]], [[0.0, 1.0]], [[0.0012994221128791925, 0.9987005778871207]], [[1.0, 0.0]], [[0.0, 1.0]]]}, {"children_left": [1, 2, -1, 4, 5, -1, 7, -1, -1, 10, 11, 12, 13, 14, -1, -1, 17, -1, -1, 20, 21, -1, -1, 24, -1, -1, 27, 28, -1, -1, -1, 32, 33, -1, -1, -1, 37, 38, 39, -1, -1, -1, 43, -1, 45, -1, -1], "children_right": [36, 3, -1, 9, 6, -1, 8, -1, -1, 31, 26, 19, 16, 15, -1, -1, 18, -1, -1, 23, 22, -1, -1, 25, -1, -1, 30, 29, -1, -1, -1, 35, 34, -1, -1, -1, 42, 41, 40, -1, -1, -1, 44, -1, 46, -1, -1], "feature": [4, 1, -2, 3, 1, -2, 0, -2, -2, 5, 5, 5, 2, 1, -2, -2, 1, -2, -2, 2, 1, -2, -2, 1, -2, -2, 1, 2, -2, -2, -2, 1, 0, -2, -2, -2, 3, 0, 0, -2, -2, -2, 0, -2, 0, -2, -2], "threshold": [0.5, 5.5, -2.0, 0.5, 20.5, -2.0, 3494.14990234375, -2.0, -2.0, 2.5, 1.5, 0.5, 0.5, 21.0, -2.0, -2.0, 20.5, -2.0, -2.0, 0.5, 20.5, -2.0, -2.0, 20.5, -2.0, -2.0, 20.5, 0.5, -2.0, -2.0, -2.0, 20.5, 21.335000038146973, -2.0, -2.0, -2.0, 0.5, 3079.175048828125, 28.024999618530273, -2.0, -2.0, -2.0, 2932.784912109375, -2.0, 3029.6749267578125, -2.0, -2.0], "value": [[[0.5113748985032374, 0.4886251014967638]], [[0.7608311834800698, 0.2391688165199288]], [[0.0, 1.0]], [[0.9017332855202075, 0.09826671447979228]], [[0.973015320334262, 0.02698467966573765]], [[1.0, 0.0]], [[0.0, 1.0]], [[0.0, 1.0]], [[0.0, 1.0]], [[0.5264887437728168, 0.47351125622718276]], [[0.5012791498573247, 0.49872085014267203]], [[0.4857831672700464, 0.5142168327299504]], [[0.5244194229415887, 0.47558057705840895]], [[0.8017135144651141, 0.19828648553488684]], [[1.0, 0.0]], [[0.0, 1.0]], [[0.20794963667414523, 0.7920503633258549]], [[1.0, 0.0]], [[0.0, 1.0]], [[0.4452197612753861, 0.5547802387246127]], [[0.8017135144651134, 0.19828648553488665]], [[1.0, 0.0]], [[0.0, 1.0]], [[0.13373190040608723, 0.866268099593913]], [[1.0, 0.0]], [[0.0, 1.0]], [[0.5345890293033981, 0.4654109706966016]], [[1.0, 0.0]], [[1.0, 0.0]], [[1.0, 0.0]], [[0.0, 1.0]], [[0.6104379167854942, 0.3895620832145045]], [[1.0, 0.0]], [[1.0, 0.0]], [[1.0, 0.0]], [[0.0, 1.0]], [[0.06574809813559612, 0.9342519018644025]], [[0.3053364102195102, 0.694663589780487]], [[1.0, 0.0]], [[1.0, 0.0]], [[1.0, 0.0]], [[0.0, 1.0]], [[0.0070388448351788695, 0.9929611551648205]], [[1.0, 0.0]], [[0.0, 1.0]], [[0.0, 1.0]], [[0.0, 1.0]]]}, {"children_left": [1, 2, 3, -1, -1, 6, -1, -1, 9, -1, 11, -1, -1], "children_right": [8, 5, 4, -1, -1, 7, -1, -1, 10, -1, 12, -1, -1], "feature": [4, 0, 1, -2, -2, 3, -2, -2, 0, -2, 0, -2, -2], "threshold": [0.5, 3000.2650146484375, 7.5, -2.0, -2.0, 0.5, -2.0, -2.0, 2996.3599853515625, -2.0, 3029.304931640625, -2.0, -2.0], "value": [[[0.4995237501059711, 0.500476249894033]], [[0.7638147982167857, 0.23618520178321264]], [[1.0, 0.0]], [[1.0, 0.0]], [[1.0, 0.0]], [[0.0, 1.0]], [[0.0, 1.0]], [[0.0, 1.0]], [[0.058777661706222124, 0.9412223382937758]], [[1.0, 0.0]], [[0.0, 1.0]], [[0.0, 1.0]], [[0.0, 1.0]]]}, {"children_left": [1, 2, -1, -1, -1], "children_right": [4, 3, -1, -1, -1], "feature": [0, 0, -2, -2, -2], "threshold": [3009.3099365234375, 11.03499984741211, -2.0, -2.0, -2.0], "value": [[[0.5021508938039261, 0.49784910619607864]], [[1.0, 0.0]], [[1.0, 0.0]], [[1.0, 0.0]], [[0.0, 1.0]]]}, {"children_left": [1, 2, -1, -1, -1], "children_right": [4, 3, -1, -1, -1], "feature": [0, 1, -2, -2, -2], "threshold": [3020.0599365234375, 7.5, -2.0, -2.0, -2.0], "value": [[[0.4988105470222932, 0.5011894529777107]], [[1.0, 0.0]], [[1.0, 0.0]], [[1.0, 0.0]], [[0.0, 1.0]]]}, {"children_left": [1, 2, -1, 4, 5, 6, 7, -1, -1, -1, 11, 12, -1, -1, -1, 16, 17, -1, -1, -1, 21, -1, 23, -1, -1], "children_right": [20, 3, -1, 15, 10, 9, 8, -1, -1, -1, 14, 13, -1, -1, -1, 19, 18, -1, -1, -1, 22, -1, 24, -1, -1], "feature": [4, 1, -2, 2, 5, 1, 1, -2, -2, -2, 1, 3, -2, -2, -2, 0, 0, -2, -2, -2, 0, -2, 2, -2, -2], "threshold": [0.5, 5.5, -2.0, 0.5, 0.5, 20.5, 7.5, -2.0, -2.0, -2.0, 20.5, 0.5, -2.0, -2.0, -2.0, 3185.5899658203125, 18.925000190734863, -2.0, -2.0, -2.0, 2996.3599853515625, -2.0, 0.5, -2.0, -2.0], "value": [[[0.5038326529575922, 0.49616734704241194]], [[0.758246924810535, 0.2417530751894645]], [[0.0, 1.0]], [[0.9046222986573634, 0.09537770134263637]], [[0.9759799252171693, 0.024020074782830792]], [[0.9543052227695683, 0.0456947772304305]], [[1.0, 0.0]], [[1.0, 0.0]], [[1.0, 0.0]], [[0.0, 1.0]], [[0.9832590377786395, 0.016740962221360407]], [[1.0, 0.0]], [[1.0, 0.0]], [[1.0, 0.0]], [[0.0, 1.0]], [[0.7110861867782586, 0.28891381322174137]], [[1.0, 0.0]], [[1.0, 0.0]], [[1.0, 0.0]], [[0.0, 1.0]], [[0.06542225556307527, 0.9345777444369229]], [[1.0, 0.0]], [[0.0, 1.0]], [[0.0, 1.0]], [[0.0, 1.0]]]}, {"children_left": [1, 2, 3, -1, -1, 6, -1, -1, 9, 10, 11, -1, -1, -1, 15, -1, 17, -1, 19, -1, -1], "children_right": [8, 5, 4, -1, -1, 7, -1, -1, 14, 13, 12, -1, -1, -1, 16, -1, 18, -1, 20, -1, -1], "feature": [3, 0, 5, -2, -2, 2, -2, -2, 2, 0, 1, -2, -2, -2, 1, -2, 0, -2, 1, -2, -2], "threshold": [0.5, 3029.135009765625, 0.5, -2.0, -2.0, 0.5, -2.0, -2.0, 0.5, 3015.260009765625, 7.5, -2.0, -2.0, -2.0, 5.5, -2.0, 3005.580078125, -2.0, 21.5, -2.0, -2.0], "value": [[[0.49573615315738434, 0.5042638468426202]], [[0.8394536946013914, 0.1605463053986075]], [[1.0, 0.0]], [[1.0, 0.0]], [[1.0, 0.0]], [[0.0, 1.0]], [[0.0, 1.0]], [[0.0, 1.0]], [[0.10663385935633354, 0.8933661406436643]], [[0.3468006959211284, 0.6531993040788672]], [[1.0, 0.0]], [[1.0, 0.0]], [[1.0, 0.0]], [[0.0, 1.0]], [[0.03280341424908206, 0.9671965857509175]], [[0.0, 1.0]], [[0.08587823372259142, 0.9141217662774075]], [[1.0, 0.0]], [[0.0, 1.0]], [[0.0, 1.0]], [[0.0, 1.0]]]}, {"children_left": [1, 2, -1, -1, -1], "children_right": [4, 3, -1, -1, -1], "feature": [0, 4, -2, -2, -2], "threshold": [3000.2301025390625, 0.5, -2.0, -2.0, -2.0], "value": [[[0.4926877600415386, 0.5073122399584643]], [[1.0, 0.0]], [[1.0, 0.0]], [[1.0, 0.0]], [[0.0, 1.0]]]}, {"children_left": [1, 2, -1, -1, -1], "children_right": [4, 3, -1, -1, -1], "feature": [0, 1, -2, -2, -2], "threshold": [3008.8399658203125, 7.5, -2.0, -2.0, -2.0], "value": [[[0.49644330883247967, 0.5035566911675264]], [[1.0, 0.0]], [[1.0, 0.0]], [[1.0, 0.0]], [[0.0, 1.0]]]}, {"children_left": [1, 2, -1, -1, -1], "children_right": [4, 3, -1, -1, -1], "feature": [0, 2, -2, -2, -2], "threshold": [3017.344970703125, 0.5, -2.0, -2.0, -2.0], "value": [[[0.5155776054397057, 0.4844223945602989]], [[1.0, 0.0]], [[1.0, 0.0]], [[1.0, 0.0]], [[0.0, 1.0]]]}, {"children_left": [1, 2, 3, -1, 5, -1, 7, -1, -1, 10, 11, -1, -1, -1, 15, 16, 17, -1, -1, -1, 21, -1, 23, -1, -1], "children_right": [14, 9, 4, -1, 6, -1, 8, -1, -1, 13, 12, -1, -1, -1, 20, 19, 18, -1, -1, -1, 22, -1, 24, -1, -1], "feature": [3, 5, 1, -2, 0, -2, 1, -2, -2, 0, 1, -2, -2, -2, 4, 0, 1, -2, -2, -2, 1, -2, 0, -2, -2], "threshold": [0.5, 2.5, 5.5, -2.0, 3108.5499267578125, -2.0, 21.5, -2.0, -2.0, 3172.5849609375, 7.5, -2.0, -2.0, -2.0, 0.5, 2996.85009765625, 7.5, -2.0, -2.0, -2.0, 5.5, -2.0, 2977.7550048828125, -2.0, -2.0], "value": [[[0.506976642921227, 0.493023357078777]], [[0.8265407231130661, 0.17345927688693324]], [[0.8168798281570251, 0.1831201718429734]], [[0.0, 1.0]], [[0.9339444282457726, 0.06605557175422672]], [[1.0, 0.0]], [[0.0, 1.0]], [[0.0, 1.0]], [[0.0, 1.0]], [[0.8561140356947063, 0.1438859643052928]], [[1.0, 0.0]], [[1.0, 0.0]], [[1.0, 0.0]], [[0.0, 1.0]], [[0.11536830676222214, 0.8846316932377759]], [[0.31321138211382143, 0.6867886178861745]], [[1.0, 0.0]], [[1.0, 0.0]], [[1.0, 0.0]], [[0.0, 1.0]], [[0.0061913331306112165, 0.9938086668693886]], [[0.0, 1.0]], [[0.01819544723149386, 0.9818045527685061]], [[1.0, 0.0]], [[0.0, 1.0]]]}, {"children_left": [1, -1, 3, 4, -1, 6, -1, -1, 9, 10, -1, -1, -1], "children_right": [2, -1, 8, 5, -1, 7, -1, -1, 12, 11, -1, -1, -1], "feature": [1, -2, 2, 1, -2, 0, -2, -2, 1, 5, -2, -2, -2], "threshold": [5.5, -2.0, 0.5, 20.5, -2.0, 3202.2650146484375, -2.0, -2.0, 20.5, 0.5, -2.0, -2.0, -2.0], "value": [[[0.5060063768501794, 0.4939936231498228]], [[0.0, 1.0]], [[0.7529588395521603, 0.2470411604478415]], [[0.947165750772564, 0.05283424922743549]], [[1.0, 0.0]], [[0.0, 1.0]], [[0.0, 1.0]], [[0.0, 1.0]], [[0.42401855982249503, 0.5759814401775052]], [[1.0, 0.0]], [[1.0, 0.0]], [[1.0, 0.0]], [[0.0, 1.0]]]}, {"children_left": [1, 2, -1, -1, -1], "children_right": [4, 3, -1, -1, -1], "feature": [0, 2, -2, -2, -2], "threshold": [3000.2301025390625, 0.5, -2.0, -2.0, -2.0], "value": [[[0.478721366939393, 0.52127863306061]], [[1.0, 0.0]], [[1.0, 0.0]], [[1.0, 0.0]], [[0.0, 1.0]]]}, {"children_left": [1, 2, 3, 4, 5, -1, 7, -1, -1, 10, -1, -1, 13, 14, -1, -1, -1, 18, -1, 20, -1, -1, 23, 24, 25, -1, -1, -1, 29, 30, -1, -1, 33, -1, -1], "children_right": [22, 17, 12, 9, 6, -1, 8, -1, -1, 11, -1, -1, 16, 15, -1, -1, -1, 19, -1, 21, -1, -1, 28, 27, 26, -1, -1, -1, 32, 31, -1, -1, 34, -1, -1], "feature": [3, 4, 2, 1, 1, -2, 0, -2, -2, 5, -2, -2, 0, 5, -2, -2, -2, 1, -2, 0, -2, -2, 2, 0, 5, -2, -2, -2, 1, 5, -2, -2, 0, -2, -2], "threshold": [0.5, 0.5, 0.5, 20.5, 5.0, -2.0, 13.21500015258789, -2.0, -2.0, 1.0, -2.0, -2.0, 3083.93505859375, 0.5, -2.0, -2.0, -2.0, 5.5, -2.0, 3070.2750244140625, -2.0, -2.0, 0.5, 2995.169921875, 0.5, -2.0, -2.0, -2.0, 5.5, 0.5, -2.0, -2.0, 3017.1700439453125, -2.0, -2.0], "value": [[[0.4887400859975984, 0.5112599140024051]], [[0.8425392129669697, 0.1574607870330292]], [[0.9493562746361718, 0.050643725363827545]], [[0.995339188199415, 0.004660811800585033]], [[0.9976641506225359, 0.0023358493774639534]], [[0.0, 1.0]], [[1.0, 0.0]], [[1.0, 0.0]], [[1.0, 0.0]], [[0.0, 1.0]], [[0.0, 1.0]], [[0.0, 1.0]], [[0.8017135144651144, 0.19828648553488434]], [[1.0, 0.0]], [[1.0, 0.0]], [[1.0, 0.0]], [[0.0, 1.0]], [[0.24679754626418285, 0.753202453735817]], [[0.0, 1.0]], [[0.48921944540536455, 0.5107805545946356]], [[1.0, 0.0]], [[0.0, 1.0]], [[0.09605095396384516, 0.9039490460361537]], [[0.3328162021888762, 0.6671837978111242]], [[1.0, 0.0]], [[1.0, 0.0]], [[1.0, 0.0]], [[0.0, 1.0]], [[0.026081796123975227, 0.9739182038760236]], [[0.0, 1.0]], [[0.0, 1.0]], [[0.0, 1.0]], [[0.07316092687954275, 0.9268390731204575]], [[1.0, 0.0]], [[0.0, 1.0]]]}, {"children_left": [1, 2, 3, 4, -1, 6, -1, 8, -1, -1, 11, 12, -1, -1, -1, 16, -1, 18, -1, -1, 21, -1, 23, -1, -1], "children_right": [20, 15, 10, 5, -1, 7, -1, 9, -1, -1, 14, 13, -1, -1, -1, 17, -1, 19, -1, -1, 22, -1, 24, -1, -1], "feature": [4, 2, 3, 1, -2, 1, -2, 1, -2, -2, 0, 1, -2, -2, -2, 1, -2, 0, -2, -2, 1, -2, 1, -2, -2], "threshold": [0.5, 0.5, 0.5, 5.5, -2.0, 20.5, -2.0, 22.0, -2.0, -2.0, 3082.695068359375, 7.5, -2.0, -2.0, -2.0, 5.5, -2.0, 3175.1800537109375, -2.0, -2.0, 5.5, -2.0, 20.5, -2.0, -2.0], "value": [[[0.4964433088324789, 0.5035566911675253]], [[0.7598680592070346, 0.2401319407929633]], [[0.9310350256814571, 0.06896497431854212]], [[0.9860787668234644, 0.013921233176535529]], [[0.0, 1.0]], [[0.9964829706667887, 0.0035170293332111423]], [[1.0, 0.0]], [[0.0, 1.0]], [[0.0, 1.0]], [[0.0, 1.0]], [[0.6209531582723928, 0.37904684172760483]], [[1.0, 0.0]], [[1.0, 0.0]], [[1.0, 0.0]], [[0.0, 1.0]], [[0.44444229523100615, 0.5555577047689934]], [[0.0, 1.0]], [[0.7377921678284287, 0.26220783217157245]], [[1.0, 0.0]], [[0.0, 1.0]], [[0.05313351238633693, 0.9468664876136613]], [[0.0, 1.0]], [[0.12893214524152258, 0.8710678547584776]], [[1.0, 0.0]], [[0.0, 1.0]]]}, {"children_left": [1, 2, -1, 4, 5, 6, -1, -1, 9, 10, -1, -1, -1, 14, -1, -1, 17, -1, 19, -1, -1], "children_right": [16, 3, -1, 13, 8, 7, -1, -1, 12, 11, -1, -1, -1, 15, -1, -1, 18, -1, 20, -1, -1], "feature": [4, 1, -2, 3, 2, 0, -2, -2, 0, 1, -2, -2, -2, 0, -2, -2, 0, -2, 3, -2, -2], "threshold": [0.5, 5.5, -2.0, 0.5, 0.5, 3306.6649169921875, -2.0, -2.0, 3181.2249755859375, 7.5, -2.0, -2.0, -2.0, 3015.260009765625, -2.0, -2.0, 2982.3349609375, -2.0, 0.5, -2.0, -2.0], "value": [[[0.5126060300459931, 0.4873939699540107]], [[0.7783116063492015, 0.22168839365079698]], [[0.0, 1.0]], [[0.914692386160875, 0.08530761383912425]], [[0.9825436402196965, 0.017456359780303115]], [[0.9940961583620344, 0.005903841637965631]], [[1.0, 0.0]], [[0.0, 1.0]], [[0.9420343485634186, 0.05796565143658097]], [[1.0, 0.0]], [[1.0, 0.0]], [[1.0, 0.0]], [[0.0, 1.0]], [[0.5675571908494661, 0.4324428091505352]], [[1.0, 0.0]], [[0.0, 1.0]], [[0.06727792242672007, 0.932722077573278]], [[1.0, 0.0]], [[0.0, 1.0]], [[0.0, 1.0]], [[0.0, 1.0]]]}, {"children_left": [1, 2, -1, -1, -1], "children_right": [4, 3, -1, -1, -1], "feature": [0, 0, -2, -2, -2], "threshold": [3009.2750244140625, 11.03499984741211, -2.0, -2.0, -2.0], "value": [[[0.499048125354282, 0.5009518746457239]], [[1.0, 0.0]], [[1.0, 0.0]], [[1.0, 0.0]], [[0.0, 1.0]]]}, {"children_left": [1, -1, 3, -1, -1], "children_right": [2, -1, 4, -1, -1], "feature": [1, -2, 1, -2, -2], "threshold": [5.5, -2.0, 20.5, -2.0, -2.0], "value": [[[0.5000000000000059, 0.499999999999999]], [[0.0, 1.0]], [[0.7472924187725685, 0.252707581227433]], [[1.0, 0.0]], [[0.0, 1.0]]]}, {"children_left": [1, 2, 3, -1, -1, -1, 7, -1, 9, 10, 11, -1, -1, -1, 15, 16, -1, -1, 19, -1, -1], "children_right": [6, 5, 4, -1, -1, -1, 8, -1, 14, 13, 12, -1, -1, -1, 18, 17, -1, -1, 20, -1, -1], "feature": [4, 0, 1, -2, -2, -2, 1, -2, 3, 1, 5, -2, -2, -2, 2, 1, -2, -2, 5, -2, -2], "threshold": [0.5, 3000.2650146484375, 7.5, -2.0, -2.0, -2.0, 5.5, -2.0, 0.5, 20.5, 0.5, -2.0, -2.0, -2.0, 0.5, 20.5, -2.0, -2.0, 0.5, -2.0, -2.0], "value": [[[0.4992858596642877, 0.500714140335715]], [[0.7448779355679536, 0.25512206443204344]], [[1.0, 0.0]], [[1.0, 0.0]], [[1.0, 0.0]], [[0.0, 1.0]], [[0.06262593465252111, 0.9373740653474767]], [[0.0, 1.0]], [[0.1548211960479954, 0.8451788039520058]], [[0.5235333649351653, 0.47646663506483283]], [[1.0, 0.0]], [[1.0, 0.0]], [[1.0, 0.0]], [[0.0, 1.0]], [[0.01674484447765052, 0.9832551555223491]], [[0.10160548113304017, 0.8983945188669598]], [[1.0, 0.0]], [[0.0, 1.0]], [[0.0, 1.0]], [[0.0, 1.0]], [[0.0, 1.0]]]}, {"children_left": [1, 2, -1, 4, -1, -1, 7, -1, 9, -1, -1], "children_right": [6, 3, -1, 5, -1, -1, 8, -1, 10, -1, -1], "feature": [2, 0, -2, 3, -2, -2, 0, -2, 5, -2, -2], "threshold": [0.5, 3009.2750244140625, -2.0, 0.5, -2.0, -2.0, 3015.52001953125, -2.0, 0.5, -2.0, -2.0], "value": [[[0.4798456734568273, 0.5201543265431774]], [[0.8075082602255914, 0.19249173977440698]], [[1.0, 0.0]], [[0.0, 1.0]], [[0.0, 1.0]], [[0.0, 1.0]], [[0.19200354572122355, 0.8079964542787746]], [[1.0, 0.0]], [[0.0, 1.0]], [[0.0, 1.0]], [[0.0, 1.0]]]}, {"children_left": [1, 2, -1, -1, -1], "children_right": [4, 3, -1, -1, -1], "feature": [0, 4, -2, -2, -2], "threshold": [3000.2650146484375, 0.5, -2.0, -2.0, -2.0], "value": [[[0.5009543801515709, 0.4990456198484331]], [[1.0, 0.0]], [[1.0, 0.0]], [[1.0, 0.0]], [[0.0, 1.0]]]}]